{"learner":{"attributes":{"scikit_learn":"{\"_estimator_type\": \"classifier\"}"},"feature_names":["abdominal_pain","abnormal_menstruation","acidity","acute_liver_failure","altered_sensorium","anxiety","back_pain","belly_pain","blackheads","bladder_discomfort","blister","blood_in_sputum","bloody_stool","blurred_and_distorted_vision","breathlessness","brittle_nails","bruising","burning_micturition","chest_pain","chills","cold_hands_and_feets","coma","congestion","constipation","continuous_feel_of_urine","continuous_sneezing","cough","cramps","dark_urine","dehydration","depression","diarrhoea","dischromic _patches","distention_of_abdomen","dizziness","drying_and_tingling_lips","enlarged_thyroid","excessive_hunger","extra_marital_contacts","family_history","fast_heart_rate","fatigue","fluid_overload","foul_smell_of urine","headache","high_fever","hip_joint_pain","history_of_alcohol_consumption","increased_appetite","indigestion","inflammatory_nails","internal_itching","irregular_sugar_level","irritability","irritation_in_anus","itching","joint_pain","knee_pain","lack_of_concentration","lethargy","loss_of_appetite","loss_of_balance","loss_of_smell","malaise","mild_fever","mood_swings","movement_stiffness","mucoid_sputum","muscle_pain","muscle_wasting","muscle_weakness","nan","nausea","neck_pain","nodal_skin_eruptions","obesity","pain_behind_the_eyes","pain_during_bowel_movements","pain_in_anal_region","painful_walking","palpitations","passage_of_gases","patches_in_throat","phlegm","polyuria","prominent_veins_on_calf","puffy_face_and_eyes","pus_filled_pimples","receiving_blood_transfusion","receiving_unsterile_injections","red_sore_around_nose","red_spots_over_body","redness_of_eyes","restlessness","runny_nose","rusty_sputum","scurring","shivering","silver_like_dusting","sinus_pressure","skin_peeling","skin_rash","slurred_speech","small_dents_in_nails","spinning_movements","spotting_ urination","stiff_neck","stomach_bleeding","stomach_pain","sunken_eyes","sweating","swelled_lymph_nodes","swelling_joints","swelling_of_stomach","swollen_blood_vessels","swollen_extremeties","swollen_legs","throat_irritation","toxic_look_(typhos)","ulcers_on_tongue","unsteadiness","visual_disturbances","vomiting","watering_from_eyes","weakness_in_limbs","weakness_of_one_body_side","weight_gain","weight_loss","yellow_crust_ooze","yellow_urine","yellowing_of_eyes","yellowish_skin"],"feature_types":["int","int","int","int","int","int","int","int","int","int","int","int","int","int","int","int","int","int","int","int","int","int","int","int","int","int","int","int","int","int","int","int","int","int","int","int","int","int","int","int","int","int","int","int","int","int","int","int","int","int","int","int","int","int","int","int","int","int","int","int","int","int","int","int","int","int","int","int","int","int","int","int","int","int","int","int","int","int","int","int","int","int","int","int","int","int","int","int","int","int","int","int","int","int","int","int","int","int","int","int","int","int","int","int","int","int","int","int","int","int","int","int","int","int","int","int","int","int","int","int","int","int","int","int","int","int","int","int","int","int","int","int"],"gradient_booster":{"model":{"cats":{"enc":[],"feature_segments":[],"sorted_idx":[]},"gbtree_model_param":{"num_parallel_tree":"1","num_trees":"4100"},"iteration_indptr":[0,41,82,123,164,205,246,287,328,369,410,451,492,533,574,615,656,697,738,779,820,861,902,943,984,1025,1066,1107,1148,1189,1230,1271,1312,1353,1394,1435,1476,1517,1558,1599,1640,1681,1722,1763,1804,1845,1886,1927,1968,2009,2050,2091,2132,2173,2214,2255,2296,2337,2378,2419,2460,2501,2542,2583,2624,2665,2706,2747,2788,2829,2870,2911,2952,2993,3034,3075,3116,3157,3198,3239,3280,3321,3362,3403,3444,3485,3526,3567,3608,3649,3690,3731,3772,3813,3854,3895,3936,3977,4018,4059,4100],"tree_info":[0,1,2,3,4,5,6,7,8,9,10,11,12,13,14,15,16,17,18,19,20,21,22,23,24,25,26,27,28,29,30,31,32,33,34,35,36,37,38,39,40,0,1,2,3,4,5,6,7,8,9,10,11,12,13,14,15,16,17,18,19,20,21,22,23,24,25,26,27,28,29,30,31,32,33,34,35,36,37,38,39,40,0,1,2,3,4,5,6,7,8,9,10,11,12,13,14,15,16,17,18,19,20,21,22,23,24,25,26,27,28,29,30,31,32,33,34,35,36,37,38,39,40,0,1,2,3,4,5,6,7,8,9,10,11,12,13,14,15,16,17,18,19,20,21,22,23,24,25,26,27,28,29,30,31,32,33,34,35,36,37,38,39,40,0,1,2,3,4,5,6,7,8,9,10,11,12,13,14,15,16,17,18,19,20,21,22,23,24,25,26,27,28,29,30,31,32,33,34,35,36,37,38,39,40,0,1,2,3,4,5,6,7,8,9,10,11,12,13,14,15,16,17,18,19,20,21,22,23,24,25,26,27,28,29,30,31,32,33,34,35,36,37,38,39,40,0,1,2,3,4,5,6,7,8,9,10,11,12,13,14,15,16,17,18,19,20,21,22,23,24,25,26,27,28,29,30,31,32,33,34,35,36,37,38,39,40,0,1,2,3,4,5,6,7,8,9,10,11,12,13,14,15,16,17,18,19,20,21,22,23,24,25,26,27,28,29,30,31,32,33,34,35,36,37,38,39,40,0,1,2,3,4,5,6,7,8,9,10,11,12,13,14,15,16,17,18,19,20,21,22,23,24,25,26,27,28,29,30,31,32,33,34,35,36,37,38,39,40,0,1,2,3,4,5,6,7,8,9,10,11,12,13,14,15,16,17,18,19,20,21,22,23,24,25,26,27,28,29,30,31,32,33,34,35,36,37,38,39,40,0,1,2,3,4,5,6,7,8,9,10,11,12,13,14,15,16,17,18,19,20,21,22,23,24,25,26,27,28,29,30,31,32,33,34,35,36,37,38,39,40,0,1,2,3,4,5,6,7,8,9,10,11,12,13,14,15,16,17,18,19,20,21,22,23,24,25,26,27,28,29,30,31,32,33,34,35,36,37,38,39,40,0,1,2,3,4,5,6,7,8,9,10,11,12,13,14,15,16,17,18,19,20,21,22,23,24,25,26,27,28,29,30,31,32,33,34,35,36,37,38,39,40,0,1,2,3,4,5,6,7,8,9,10,11,12,13,14,15,16,17,18,19,20,21,22,23,24,25,26,27,28,29,30,31,32,33,34,35,36,37,38,39,40,0,1,2,3,4,5,6,7,8,9,10,11,12,13,14,15,16,17,18,19,20,21,22,23,24,25,26,27,28,29,30,31,32,33,34,35,36,37,38,39,40,0,1,2,3,4,5,6,7,8,9,10,11,12,13,14,15,16,17,18,19,20,21,22,23,24,25,26,27,28,29,30,31,32,33,34,35,36,37,38,39,40,0,1,2,3,4,5,6,7,8,9,10,11,12,13,14,15,16,17,18,19,20,21,22,23,24,25,26,27,28,29,30,31,32,33,34,35,36,37,38,39,40,0,1,2,3,4,5,6,7,8,9,10,11,12,13,14,15,16,17,18,19,20,21,22,23,24,25,26,27,28,29,30,31,32,33,34,35,36,37,38,39,40,0,1,2,3,4,5,6,7,8,9,10,11,12,13,14,15,16,17,18,19,20,21,22,23,24,25,26,27,28,29,30,31,32,33,34,35,36,37,38,39,40,0,1,2,3,4,5,6,7,8,9,10,11,12,13,14,15,16,17,18,19,20,21,22,23,24,25,26,27,28,29,30,31,32,33,34,35,36,37,38,39,40,0,1,2,3,4,5,6,7,8,9,10,11,12,13,14,15,16,17,18,19,20,21,22,23,24,25,26,27,28,29,30,31,32,33,34,35,36,37,38,39,40,0,1,2,3,4,5,6,7,8,9,10,11,12,13,14,15,16,17,18,19,20,21,22,23,24,25,26,27,28,29,30,31,32,33,34,35,36,37,38,39,40,0,1,2,3,4,5,6,7,8,9,10,11,12,13,14,15,16,17,18,19,20,21,22,23,24,25,26,27,28,29,30,31,32,33,34,35,36,37,38,39,40,0,1,2,3,4,5,6,7,8,9,10,11,12,13,14,15,16,17,18,19,20,21,22,23,24,25,26,27,28,29,30,31,32,33,34,35,36,37,38,39,40,0,1,2,3,4,5,6,7,8,9,10,11,12,13,14,15,16,17,18,19,20,21,22,23,24,25,26,27,28,29,30,31,32,33,34,35,36,37,38,39,40,0,1,2,3,4,5,6,7,8,9,10,11,12,13,14,15,16,17,18,19,20,21,22,23,24,25,26,27,28,29,30,31,32,33,34,35,36,37,38,39,40,0,1,2,3,4,5,6,7,8,9,10,11,12,13,14,15,16,17,18,19,20,21,22,23,24,25,26,27,28,29,30,31,32,33,34,35,36,37,38,39,40,0,1,2,3,4,5,6,7,8,9,10,11,12,13,14,15,16,17,18,19,20,21,22,23,24,25,26,27,28,29,30,31,32,33,34,35,36,37,38,39,40,0,1,2,3,4,5,6,7,8,9,10,11,12,13,14,15,16,17,18,19,20,21,22,23,24,25,26,27,28,29,30,31,32,33,34,35,36,37,38,39,40,0,1,2,3,4,5,6,7,8,9,10,11,12,13,14,15,16,17,18,19,20,21,22,23,24,25,26,27,28,29,30,31,32,33,34,35,36,37,38,39,40,0,1,2,3,4,5,6,7,8,9,10,11,12,13,14,15,16,17,18,19,20,21,22,23,24,25,26,27,28,29,30,31,32,33,34,35,36,37,38,39,40,0,1,2,3,4,5,6,7,8,9,10,11,12,13,14,15,16,17,18,19,20,21,22,23,24,25,26,27,28,29,30,31,32,33,34,35,36,37,38,39,40,0,1,2,3,4,5,6,7,8,9,10,11,12,13,14,15,16,17,18,19,20,21,22,23,24,25,26,27,28,29,30,31,32,33,34,35,36,37,38,39,40,0,1,2,3,4,5,6,7,8,9,10,11,12,13,14,15,16,17,18,19,20,21,22,23,24,25,26,27,28,29,30,31,32,33,34,35,36,37,38,39,40,0,1,2,3,4,5,6,7,8,9,10,11,12,13,14,15,16,17,18,19,20,21,22,23,24,25,26,27,28,29,30,31,32,33,34,35,36,37,38,39,40,0,1,2,3,4,5,6,7,8,9,10,11,12,13,14,15,16,17,18,19,20,21,22,23,24,25,26,27,28,29,30,31,32,33,34,35,36,37,38,39,40,0,1,2,3,4,5,6,7,8,9,10,11,12,13,14,15,16,17,18,19,20,21,22,23,24,25,26,27,28,29,30,31,32,33,34,35,36,37,38,39,40,0,1,2,3,4,5,6,7,8,9,10,11,12,13,14,15,16,17,18,19,20,21,22,23,24,25,26,27,28,29,30,31,32,33,34,35,36,37,38,39,40,0,1,2,3,4,5,6,7,8,9,10,11,12,13,14,15,16,17,18,19,20,21,22,23,24,25,26,27,28,29,30,31,32,33,34,35,36,37,38,39,40,0,1,2,3,4,5,6,7,8,9,10,11,12,13,14,15,16,17,18,19,20,21,22,23,24,25,26,27,28,29,30,31,32,33,34,35,36,37,38,39,40,0,1,2,3,4,5,6,7,8,9,10,11,12,13,14,15,16,17,18,19,20,21,22,23,24,25,26,27,28,29,30,31,32,33,34,35,36,37,38,39,40,0,1,2,3,4,5,6,7,8,9,10,11,12,13,14,15,16,17,18,19,20,21,22,23,24,25,26,27,28,29,30,31,32,33,34,35,36,37,38,39,40,0,1,2,3,4,5,6,7,8,9,10,11,12,13,14,15,16,17,18,19,20,21,22,23,24,25,26,27,28,29,30,31,32,33,34,35,36,37,38,39,40,0,1,2,3,4,5,6,7,8,9,10,11,12,13,14,15,16,17,18,19,20,21,22,23,24,25,26,27,28,29,30,31,32,33,34,35,36,37,38,39,40,0,1,2,3,4,5,6,7,8,9,10,11,12,13,14,15,16,17,18,19,20,21,22,23,24,25,26,27,28,29,30,31,32,33,34,35,36,37,38,39,40,0,1,2,3,4,5,6,7,8,9,10,11,12,13,14,15,16,17,18,19,20,21,22,23,24,25,26,27,28,29,30,31,32,33,34,35,36,37,38,39,40,0,1,2,3,4,5,6,7,8,9,10,11,12,13,14,15,16,17,18,19,20,21,22,23,24,25,26,27,28,29,30,31,32,33,34,35,36,37,38,39,40,0,1,2,3,4,5,6,7,8,9,10,11,12,13,14,15,16,17,18,19,20,21,22,23,24,25,26,27,28,29,30,31,32,33,34,35,36,37,38,39,40,0,1,2,3,4,5,6,7,8,9,10,11,12,13,14,15,16,17,18,19,20,21,22,23,24,25,26,27,28,29,30,31,32,33,34,35,36,37,38,39,40,0,1,2,3,4,5,6,7,8,9,10,11,12,13,14,15,16,17,18,19,20,21,22,23,24,25,26,27,28,29,30,31,32,33,34,35,36,37,38,39,40,0,1,2,3,4,5,6,7,8,9,10,11,12,13,14,15,16,17,18,19,20,21,22,23,24,25,26,27,28,29,30,31,32,33,34,35,36,37,38,39,40,0,1,2,3,4,5,6,7,8,9,10,11,12,13,14,15,16,17,18,19,20,21,22,23,24,25,26,27,28,29,30,31,32,33,34,35,36,37,38,39,40,0,1,2,3,4,5,6,7,8,9,10,11,12,13,14,15,16,17,18,19,20,21,22,23,24,25,26,27,28,29,30,31,32,33,34,35,36,37,38,39,40,0,1,2,3,4,5,6,7,8,9,10,11,12,13,14,15,16,17,18,19,20,21,22,23,24,25,26,27,28,29,30,31,32,33,34,35,36,37,38,39,40,0,1,2,3,4,5,6,7,8,9,10,11,12,13,14,15,16,17,18,19,20,21,22,23,24,25,26,27,28,29,30,31,32,33,34,35,36,37,38,39,40,0,1,2,3,4,5,6,7,8,9,10,11,12,13,14,15,16,17,18,19,20,21,22,23,24,25,26,27,28,29,30,31,32,33,34,35,36,37,38,39,40,0,1,2,3,4,5,6,7,8,9,10,11,12,13,14,15,16,17,18,19,20,21,22,23,24,25,26,27,28,29,30,31,32,33,34,35,36,37,38,39,40,0,1,2,3,4,5,6,7,8,9,10,11,12,13,14,15,16,17,18,19,20,21,22,23,24,25,26,27,28,29,30,31,32,33,34,35,36,37,38,39,40,0,1,2,3,4,5,6,7,8,9,10,11,12,13,14,15,16,17,18,19,20,21,22,23,24,25,26,27,28,29,30,31,32,33,34,35,36,37,38,39,40,0,1,2,3,4,5,6,7,8,9,10,11,12,13,14,15,16,17,18,19,20,21,22,23,24,25,26,27,28,29,30,31,32,33,34,35,36,37,38,39,40,0,1,2,3,4,5,6,7,8,9,10,11,12,13,14,15,16,17,18,19,20,21,22,23,24,25,26,27,28,29,30,31,32,33,34,35,36,37,38,39,40,0,1,2,3,4,5,6,7,8,9,10,11,12,13,14,15,16,17,18,19,20,21,22,23,24,25,26,27,28,29,30,31,32,33,34,35,36,37,38,39,40,0,1,2,3,4,5,6,7,8,9,10,11,12,13,14,15,16,17,18,19,20,21,22,23,24,25,26,27,28,29,30,31,32,33,34,35,36,37,38,39,40,0,1,2,3,4,5,6,7,8,9,10,11,12,13,14,15,16,17,18,19,20,21,22,23,24,25,26,27,28,29,30,31,32,33,34,35,36,37,38,39,40,0,1,2,3,4,5,6,7,8,9,10,11,12,13,14,15,16,17,18,19,20,21,22,23,24,25,26,27,28,29,30,31,32,33,34,35,36,37,38,39,40,0,1,2,3,4,5,6,7,8,9,10,11,12,13,14,15,16,17,18,19,20,21,22,23,24,25,26,27,28,29,30,31,32,33,34,35,36,37,38,39,40,0,1,2,3,4,5,6,7,8,9,10,11,12,13,14,15,16,17,18,19,20,21,22,23,24,25,26,27,28,29,30,31,32,33,34,35,36,37,38,39,40,0,1,2,3,4,5,6,7,8,9,10,11,12,13,14,15,16,17,18,19,20,21,22,23,24,25,26,27,28,29,30,31,32,33,34,35,36,37,38,39,40,0,1,2,3,4,5,6,7,8,9,10,11,12,13,14,15,16,17,18,19,20,21,22,23,24,25,26,27,28,29,30,31,32,33,34,35,36,37,38,39,40,0,1,2,3,4,5,6,7,8,9,10,11,12,13,14,15,16,17,18,19,20,21,22,23,24,25,26,27,28,29,30,31,32,33,34,35,36,37,38,39,40,0,1,2,3,4,5,6,7,8,9,10,11,12,13,14,15,16,17,18,19,20,21,22,23,24,25,26,27,28,29,30,31,32,33,34,35,36,37,38,39,40,0,1,2,3,4,5,6,7,8,9,10,11,12,13,14,15,16,17,18,19,20,21,22,23,24,25,26,27,28,29,30,31,32,33,34,35,36,37,38,39,40,0,1,2,3,4,5,6,7,8,9,10,11,12,13,14,15,16,17,18,19,20,21,22,23,24,25,26,27,28,29,30,31,32,33,34,35,36,37,38,39,40,0,1,2,3,4,5,6,7,8,9,10,11,12,13,14,15,16,17,18,19,20,21,22,23,24,25,26,27,28,29,30,31,32,33,34,35,36,37,38,39,40,0,1,2,3,4,5,6,7,8,9,10,11,12,13,14,15,16,17,18,19,20,21,22,23,24,25,26,27,28,29,30,31,32,33,34,35,36,37,38,39,40,0,1,2,3,4,5,6,7,8,9,10,11,12,13,14,15,16,17,18,19,20,21,22,23,24,25,26,27,28,29,30,31,32,33,34,35,36,37,38,39,40,0,1,2,3,4,5,6,7,8,9,10,11,12,13,14,15,16,17,18,19,20,21,22,23,24,25,26,27,28,29,30,31,32,33,34,35,36,37,38,39,40,0,1,2,3,4,5,6,7,8,9,10,11,12,13,14,15,16,17,18,19,20,21,22,23,24,25,26,27,28,29,30,31,32,33,34,35,36,37,38,39,40,0,1,2,3,4,5,6,7,8,9,10,11,12,13,14,15,16,17,18,19,20,21,22,23,24,25,26,27,28,29,30,31,32,33,34,35,36,37,38,39,40,0,1,2,3,4,5,6,7,8,9,10,11,12,13,14,15,16,17,18,19,20,21,22,23,24,25,26,27,28,29,30,31,32,33,34,35,36,37,38,39,40,0,1,2,3,4,5,6,7,8,9,10,11,12,13,14,15,16,17,18,19,20,21,22,23,24,25,26,27,28,29,30,31,32,33,34,35,36,37,38,39,40,0,1,2,3,4,5,6,7,8,9,10,11,12,13,14,15,16,17,18,19,20,21,22,23,24,25,26,27,28,29,30,31,32,33,34,35,36,37,38,39,40,0,1,2,3,4,5,6,7,8,9,10,11,12,13,14,15,16,17,18,19,20,21,22,23,24,25,26,27,28,29,30,31,32,33,34,35,36,37,38,39,40,0,1,2,3,4,5,6,7,8,9,10,11,12,13,14,15,16,17,18,19,20,21,22,23,24,25,26,27,28,29,30,31,32,33,34,35,36,37,38,39,40,0,1,2,3,4,5,6,7,8,9,10,11,12,13,14,15,16,17,18,19,20,21,22,23,24,25,26,27,28,29,30,31,32,33,34,35,36,37,38,39,40,0,1,2,3,4,5,6,7,8,9,10,11,12,13,14,15,16,17,18,19,20,21,22,23,24,25,26,27,28,29,30,31,32,33,34,35,36,37,38,39,40,0,1,2,3,4,5,6,7,8,9,10,11,12,13,14,15,16,17,18,19,20,21,22,23,24,25,26,27,28,29,30,31,32,33,34,35,36,37,38,39,40,0,1,2,3,4,5,6,7,8,9,10,11,12,13,14,15,16,17,18,19,20,21,22,23,24,25,26,27,28,29,30,31,32,33,34,35,36,37,38,39,40,0,1,2,3,4,5,6,7,8,9,10,11,12,13,14,15,16,17,18,19,20,21,22,23,24,25,26,27,28,29,30,31,32,33,34,35,36,37,38,39,40,0,1,2,3,4,5,6,7,8,9,10,11,12,13,14,15,16,17,18,19,20,21,22,23,24,25,26,27,28,29,30,31,32,33,34,35,36,37,38,39,40,0,1,2,3,4,5,6,7,8,9,10,11,12,13,14,15,16,17,18,19,20,21,22,23,24,25,26,27,28,29,30,31,32,33,34,35,36,37,38,39,40,0,1,2,3,4,5,6,7,8,9,10,11,12,13,14,15,16,17,18,19,20,21,22,23,24,25,26,27,28,29,30,31,32,33,34,35,36,37,38,39,40,0,1,2,3,4,5,6,7,8,9,10,11,12,13,14,15,16,17,18,19,20,21,22,23,24,25,26,27,28,29,30,31,32,33,34,35,36,37,38,39,40,0,1,2,3,4,5,6,7,8,9,10,11,12,13,14,15,16,17,18,19,20,21,22,23,24,25,26,27,28,29,30,31,32,33,34,35,36,37,38,39,40,0,1,2,3,4,5,6,7,8,9,10,11,12,13,14,15,16,17,18,19,20,21,22,23,24,25,26,27,28,29,30,31,32,33,34,35,36,37,38,39,40,0,1,2,3,4,5,6,7,8,9,10,11,12,13,14,15,16,17,18,19,20,21,22,23,24,25,26,27,28,29,30,31,32,33,34,35,36,37,38,39,40,0,1,2,3,4,5,6,7,8,9,10,11,12,13,14,15,16,17,18,19,20,21,22,23,24,25,26,27,28,29,30,31,32,33,34,35,36,37,38,39,40,0,1,2,3,4,5,6,7,8,9,10,11,12,13,14,15,16,17,18,19,20,21,22,23,24,25,26,27,28,29,30,31,32,33,34,35,36,37,38,39,40,0,1,2,3,4,5,6,7,8,9,10,11,12,13,14,15,16,17,18,19,20,21,22,23,24,25,26,27,28,29,30,31,32,33,34,35,36,37,38,39,40,0,1,2,3,4,5,6,7,8,9,10,11,12,13,14,15,16,17,18,19,20,21,22,23,24,25,26,27,28,29,30,31,32,33,34,35,36,37,38,39,40],"trees":[{"base_weights":[1.2677175E-2,-4.1843346E-1,6.198027E-1,-4.682599E-2,-1.4654523E-1,-2.9866097E-2,1.0113075E-3],"categories":[],"categories_nodes":[],"categories_segments":[],"categories_sizes":[],"default_left":[0,0,0,0,0,0,0],"id":0,"left_children":[1,3,-1,-1,5,-1,-1],"loss_changes":[2.9578625E2,4.192562E-1,0E0,0E0,9.263394E-1,0E0,0E0],"parents":[2147483647,0,0,1,1,4,4],"right_children":[2,4,-1,-1,6,-1,-1],"split_conditions":[1E0,1E0,6.198027E-1,-4.682599E-2,1E0,-2.9866097E-2,1.0113075E-3],"split_indices":[104,44,0,0,72,0,0],"split_type":[0,0,0,0,0,0,0],"sum_hessian":[9.889351E1,9.6656746E1,2.2367637E0,7.552647E1,2.113028E1,1.1659726E1,9.470552E0],"tree_param":{"num_deleted":"0","num_feature":"132","num_nodes":"7","size_leaf_vector":"1"}},{"base_weights":[-1.9500567E-2,-4.3726217E-2,5.811651E-1],"categories":[],"categories_nodes":[],"categories_segments":[],"categories_sizes":[],"default_left":[0,0,0],"id":1,"left_children":[1,-1,-1],"loss_changes":[2.571734E2,0E0,0E0],"parents":[2147483647,0,0],"right_children":[2,-1,-1],"split_conditions":[1E0,-4.3726217E-2,5.811651E-1],"split_indices":[82,0,0],"split_type":[0,0,0],"sum_hessian":[9.7560974E1,9.551457E1,2.0464008E0],"tree_param":{"num_deleted":"0","num_feature":"132","num_nodes":"3","size_leaf_vector":"1"}},{"base_weights":[-0E0,-4.0676492E-1,5.7117724E-1,-4.7139376E-2,-0E0,1.9289393E-2,-1.9131135E-2],"categories":[],"categories_nodes":[],"categories_segments":[],"categories_sizes":[],"default_left":[0,0,0,0,0,0,0],"id":2,"left_children":[1,3,-1,-1,5,-1,-1],"loss_changes":[2.4486014E2,2.7296124E0,0E0,0E0,8.576075E-1,0E0,0E0],"parents":[2147483647,0,0,1,1,4,4],"right_children":[2,4,-1,-1,6,-1,-1],"split_conditions":[1E0,1E0,5.7117724E-1,-4.7139376E-2,1E0,1.9289393E-2,-1.9131135E-2],"split_indices":[96,101,0,0,55,0,0],"split_type":[0,0,0,0,0,0,0],"sum_hessian":[9.68947E1,9.489589E1,1.9988102E0,8.166567E1,1.323022E1,7.1386075E0,6.091612E0],"tree_param":{"num_deleted":"0","num_feature":"132","num_nodes":"7","size_leaf_vector":"1"}},{"base_weights":[5.3239535E-3,-4.681583E-2,6.653323E-1],"categories":[],"categories_nodes":[],"categories_segments":[],"categories_sizes":[],"default_left":[0,0,0],"id":3,"left_children":[1,-1,-1],"loss_changes":[3.5342966E2,0E0,0E0],"parents":[2147483647,0,0],"right_children":[2,-1,-1],"split_conditions":[1E0,-4.681583E-2,6.653323E-1],"split_indices":[33,0,0],"split_type":[0,0,0],"sum_hessian":[1.0036882E2,9.7894104E1,2.4747174E0],"tree_param":{"num_deleted":"0","num_feature":"132","num_nodes":"3","size_leaf_vector":"1"}},{"base_weights":[9.093265E-3,-4.2881894E-1,6.2914664E-1,-4.7678683E-2,3.5442047E-2],"categories":[],"categories_nodes":[],"categories_segments":[],"categories_sizes":[],"default_left":[0,0,0,0,0],"id":4,"left_children":[1,3,-1,-1,-1],"loss_changes":[3.071404E2,4.811592E0,0E0,0E0,0E0],"parents":[2147483647,0,0,1,1],"right_children":[2,4,-1,-1,-1],"split_conditions":[1E0,1E0,6.2914664E-1,-4.7678683E-2,3.5442047E-2],"split_indices":[97,25,0,0,0],"split_type":[0,0,0,0,0],"sum_hessian":[9.960737E1,9.732302E1,2.2843544E0,9.475312E1,2.5698988E0],"tree_param":{"num_deleted":"0","num_feature":"132","num_nodes":"5","size_leaf_vector":"1"}},{"base_weights":[1.075965E-2,-4.480953E-1,6.474728E-1,-4.7673564E-2,1.138424E-2],"categories":[],"categories_nodes":[],"categories_segments":[],"categories_sizes":[],"default_left":[0,0,0,0,0],"id":5,"left_children":[1,3,-1,-1,-1],"loss_changes":[3.29813E2,2.2741604E0,0E0,0E0,0E0],"parents":[2147483647,0,0,1,1],"right_children":[2,4,-1,-1,-1],"split_conditions":[1E0,1E0,6.474728E-1,-4.7673564E-2,1.138424E-2],"split_indices":[66,70,0,0,0],"split_type":[0,0,0,0,0],"sum_hessian":[9.927424E1,9.68947E1,2.379536E0,9.4610344E1,2.2843544E0],"tree_param":{"num_deleted":"0","num_feature":"132","num_nodes":"5","size_leaf_vector":"1"}},{"base_weights":[6.140406E-3,-4.771578E-2,6.653323E-1],"categories":[],"categories_nodes":[],"categories_segments":[],"categories_sizes":[],"default_left":[0,0,0],"id":6,"left_children":[1,-1,-1],"loss_changes":[3.5382736E2,0E0,0E0],"parents":[2147483647,0,0],"right_children":[2,-1,-1],"split_conditions":[1E0,-4.771578E-2,6.653323E-1],"split_indices":[67,0,0],"split_type":[0,0,0],"sum_hessian":[9.827483E1,9.580012E1,2.4747174E0],"tree_param":{"num_deleted":"0","num_feature":"132","num_nodes":"3","size_leaf_vector":"1"}},{"base_weights":[-1.3882198E-2,-4.1790202E-1,4.263373E0,-4.7551643E-2,2.6242003E-1,5.811651E-1,-2.3438132E-3,-4.1886047E-3,5.3942908E-2],"categories":[],"categories_nodes":[],"categories_segments":[],"categories_sizes":[],"default_left":[0,0,0,0,0,0,0,0,0],"id":7,"left_children":[1,3,5,-1,7,-1,-1,-1,-1],"loss_changes":[1.8723256E2,4.7992096E0,6.8399124E1,0E0,1.4331617E0,0E0,0E0,0E0,0E0],"parents":[2147483647,0,0,1,1,2,2,4,4],"right_children":[2,4,6,-1,8,-1,-1,-1,-1],"split_conditions":[1E0,1E0,1E0,-4.7551643E-2,1E0,5.811651E-1,-2.3438132E-3,-4.1886047E-3,5.3942908E-2],"split_indices":[6,34,44,0,61,0,0,0,0],"split_type":[0,0,0,0,0,0,0,0,0],"sum_hessian":[1.0041641E2,9.6085655E1,4.330755E0,9.1326584E1,4.759072E0,2.0464008E0,2.2843544E0,2.5698988E0,2.189173E0],"tree_param":{"num_deleted":"0","num_feature":"132","num_nodes":"9","size_leaf_vector":"1"}},{"base_weights":[-0E0,-4.762156E-2,4.8230844E0,6.474728E-1,-2.3438132E-3],"categories":[],"categories_nodes":[],"categories_segments":[],"categories_sizes":[],"default_left":[0,0,0,0,0],"id":8,"left_children":[1,-1,3,-1,-1],"loss_changes":[2.4706877E2,0E0,8.4566895E1,0E0,0E0],"parents":[2147483647,0,0,2,2],"right_children":[2,-1,4,-1,-1],"split_conditions":[1E0,-4.762156E-2,1E0,6.474728E-1,-2.3438132E-3],"split_indices":[91,0,6,0,0],"split_type":[0,0,0,0,0],"sum_hessian":[9.784651E1,9.3182625E1,4.6638904E0,2.379536E0,2.2843544E0],"tree_param":{"num_deleted":"0","num_feature":"132","num_nodes":"5","size_leaf_vector":"1"}},{"base_weights":[-1.044916E-2,-4.6150725E-2,2.1513462E0,-1.16373636E-1,4.5552607E0,-2.1314671E-2,-0E0,6.007414E-1,-6.9227465E-4],"categories":[],"categories_nodes":[],"categories_segments":[],"categories_sizes":[],"default_left":[0,0,0,0,0,0,0,0,0],"id":9,"left_children":[1,-1,3,5,7,-1,-1,-1,-1],"loss_changes":[1.0342041E2,0E0,1.0646974E2,3.5049325E-1,6.7078705E1,0E0,0E0,0E0,0E0],"parents":[2147483647,0,0,2,2,3,3,4,4],"right_children":[2,-1,4,6,8,-1,-1,-1,-1],"split_conditions":[1E0,-4.6150725E-2,1E0,1E0,1E0,-2.1314671E-2,-0E0,6.007414E-1,-6.9227465E-4],"split_indices":[55,0,122,130,45,0,0,0,0],"split_type":[0,0,0,0,0,0,0,0,0],"sum_hessian":[9.770374E1,8.4473526E1,1.323022E1,9.042236E0,4.187983E0,6.900654E0,2.1415823E0,2.1415823E0,2.0464008E0],"tree_param":{"num_deleted":"0","num_feature":"132","num_nodes":"9","size_leaf_vector":"1"}},{"base_weights":[7.098163E-3,-4.7709092E-2,6.653323E-1],"categories":[],"categories_nodes":[],"categories_segments":[],"categories_sizes":[],"default_left":[0,0,0],"id":10,"left_children":[1,-1,-1],"loss_changes":[3.537763E2,0E0,0E0],"parents":[2147483647,0,0],"right_children":[2,-1,-1],"split_conditions":[1E0,-4.7709092E-2,6.653323E-1],"split_indices":[22,0,0],"split_type":[0,0,0],"sum_hessian":[9.808447E1,9.560975E1,2.4747174E0],"tree_param":{"num_deleted":"0","num_feature":"132","num_nodes":"3","size_leaf_vector":"1"}},{"base_weights":[4.0034294E-2,-4.7740635E-2,6.997206E-1],"categories":[],"categories_nodes":[],"categories_segments":[],"categories_sizes":[],"default_left":[0,0,0],"id":11,"left_children":[1,-1,-1],"loss_changes":[3.98259E2,0E0,0E0],"parents":[2147483647,0,0],"right_children":[2,-1,-1],"split_conditions":[1E0,-4.7740635E-2,6.997206E-1],"split_indices":[76,0,0],"split_type":[0,0,0],"sum_hessian":[9.9179054E1,9.651398E1,2.66508E0],"tree_param":{"num_deleted":"0","num_feature":"132","num_nodes":"3","size_leaf_vector":"1"}},{"base_weights":[9.352217E-4,-4.775211E-2,6.653323E-1],"categories":[],"categories_nodes":[],"categories_segments":[],"categories_sizes":[],"default_left":[0,0,0],"id":12,"left_children":[1,-1,-1],"loss_changes":[3.541049E2,0E0,0E0],"parents":[2147483647,0,0],"right_children":[2,-1,-1],"split_conditions":[1E0,-4.775211E-2,6.653323E-1],"split_indices":[48,0,0],"split_type":[0,0,0],"sum_hessian":[9.932183E1,9.684711E1,2.4747174E0],"tree_param":{"num_deleted":"0","num_feature":"132","num_nodes":"3","size_leaf_vector":"1"}},{"base_weights":[1.1716659E-2,-4.4797474E-1,6.474728E-1,-4.7665E-2,1.0977689E-2],"categories":[],"categories_nodes":[],"categories_segments":[],"categories_sizes":[],"default_left":[0,0,0,0,0],"id":13,"left_children":[1,3,-1,-1,-1],"loss_changes":[3.2976157E2,2.2551289E0,0E0,0E0,0E0],"parents":[2147483647,0,0,1,1],"right_children":[2,4,-1,-1,-1],"split_conditions":[1E0,1E0,6.474728E-1,-4.7665E-2,1.0977689E-2],"split_indices":[12,23,0,0,0],"split_type":[0,0,0,0,0],"sum_hessian":[9.908388E1,9.670434E1,2.379536E0,9.437239E1,2.3319452E0],"tree_param":{"num_deleted":"0","num_feature":"132","num_nodes":"5","size_leaf_vector":"1"}},{"base_weights":[-7.1241584E-4,-4.5713356E-1,6.198027E-1,-4.7623318E-2,-0E0],"categories":[],"categories_nodes":[],"categories_segments":[],"categories_sizes":[],"default_left":[0,0,0,0,0],"id":14,"left_children":[1,3,-1,-1,-1],"loss_changes":[2.9899884E2,1.2837238E0,0E0,0E0,0E0],"parents":[2147483647,0,0,1,1],"right_children":[2,4,-1,-1,-1],"split_conditions":[1E0,1E0,6.198027E-1,-4.7623318E-2,-0E0],"split_indices":[105,108,0,0,0],"split_type":[0,0,0,0,0],"sum_hessian":[9.770374E1,9.546698E1,2.2367637E0,9.323022E1,2.2367637E0],"tree_param":{"num_deleted":"0","num_feature":"132","num_nodes":"5","size_leaf_vector":"1"}},{"base_weights":[-0E0,-4.4736516E-2,6.2914664E-1],"categories":[],"categories_nodes":[],"categories_segments":[],"categories_sizes":[],"default_left":[0,0,0],"id":15,"left_children":[1,-1,-1],"loss_changes":[3.0849747E2,0E0,0E0],"parents":[2147483647,0,0],"right_children":[2,-1,-1],"split_conditions":[1E0,-4.4736516E-2,6.2914664E-1],"split_indices":[74,0,0],"split_type":[0,0,0],"sum_hessian":[9.803688E1,9.5752525E1,2.2843544E0],"tree_param":{"num_deleted":"0","num_feature":"132","num_nodes":"3","size_leaf_vector":"1"}},{"base_weights":[2.8794035E-2,-4.3569854E-1,6.383692E-1,-4.7546156E-2,2.5112292E-2],"categories":[],"categories_nodes":[],"categories_segments":[],"categories_sizes":[],"default_left":[0,0,0,0,0],"id":16,"left_children":[1,3,-1,-1,-1],"loss_changes":[3.1739688E2,3.5105095E0,0E0,0E0,0E0],"parents":[2147483647,0,0,1,1],"right_children":[2,4,-1,-1,-1],"split_conditions":[1E0,1E0,6.383692E-1,-4.7546156E-2,2.5112292E-2],"split_indices":[119,2,0,0,0],"split_type":[0,0,0,0,0],"sum_hessian":[9.580012E1,9.346817E1,2.3319452E0,9.1183815E1,2.2843544E0],"tree_param":{"num_deleted":"0","num_feature":"132","num_nodes":"5","size_leaf_vector":"1"}},{"base_weights":[-6.40906E-2,-4.1677535E-2,5.082765E-1],"categories":[],"categories_nodes":[],"categories_segments":[],"categories_sizes":[],"default_left":[0,0,0],"id":17,"left_children":[1,-1,-1],"loss_changes":[1.9036856E2,0E0,0E0],"parents":[2147483647,0,0],"right_children":[2,-1,-1],"split_conditions":[1E0,-4.1677535E-2,5.082765E-1],"split_indices":[109,0,0],"split_type":[0,0,0],"sum_hessian":[9.660915E1,9.489589E1,1.7132659E0],"tree_param":{"num_deleted":"0","num_feature":"132","num_nodes":"3","size_leaf_vector":"1"}},{"base_weights":[-0E0,-4.3946505E-1,2.0254626E0,-4.6945553E-2,-0E0,4.6136265E0,-2.69507E-2,1.0977689E-2,-1.4745504E-2,5.943298E-1,-0E0],"categories":[],"categories_nodes":[],"categories_segments":[],"categories_sizes":[],"default_left":[0,0,0,0,0,0,0,0,0,0,0],"id":18,"left_children":[1,3,5,-1,7,9,-1,-1,-1,-1,-1],"loss_changes":[9.585253E1,8.865547E-1,1.242151E2,0E0,3.0054843E-1,6.405968E1,0E0,0E0,0E0,0E0,0E0],"parents":[2147483647,0,0,1,1,2,2,4,4,5,5],"right_children":[2,4,6,-1,8,10,-1,-1,-1,-1,-1],"split_conditions":[1E0,1E0,1E0,-4.6945553E-2,1E0,1E0,-2.69507E-2,1.0977689E-2,-1.4745504E-2,5.943298E-1,-0E0],"split_indices":[18,110,26,0,53,44,0,0,0,0,0],"split_type":[0,0,0,0,0,0,0,0,0,0,0],"sum_hessian":[9.898869E1,8.485425E1,1.4134443E1,7.776323E1,7.091017E0,4.4735274E0,9.660915E0,2.3319452E0,4.759072E0,2.522308E0,1.9512194E0],"tree_param":{"num_deleted":"0","num_feature":"132","num_nodes":"11","size_leaf_vector":"1"}},{"base_weights":[-0E0,-4.467753E-1,6.198027E-1,-4.7417197E-2,-0E0,-1.4566615E-2,1.221349E-2],"categories":[],"categories_nodes":[],"categories_segments":[],"categories_sizes":[],"default_left":[0,0,0,0,0,0,0],"id":19,"left_children":[1,3,-1,-1,5,-1,-1],"loss_changes":[2.9793475E2,9.6772575E-1,0E0,0E0,3.1330472E-1,0E0,0E0],"parents":[2147483647,0,0,1,1,4,4],"right_children":[2,4,-1,-1,6,-1,-1],"split_conditions":[1E0,1E0,6.198027E-1,-4.7417197E-2,1E0,-1.4566615E-2,1.221349E-2],"split_indices":[129,59,0,0,60,0,0],"split_type":[0,0,0,0,0,0,0],"sum_hessian":[9.708507E1,9.48483E1,2.2367637E0,8.794765E1,6.900654E0,4.711481E0,2.189173E0],"tree_param":{"num_deleted":"0","num_feature":"132","num_nodes":"7","size_leaf_vector":"1"}},{"base_weights":[-0E0,-4.5592766E-2,4.771651E0,6.383692E-1,-2.0221944E-3],"categories":[],"categories_nodes":[],"categories_segments":[],"categories_sizes":[],"default_left":[0,0,0,0,0],"id":20,"left_children":[1,-1,3,-1,-1],"loss_changes":[2.3830553E2,0E0,8.092427E1,0E0,0E0],"parents":[2147483647,0,0,2,2],"right_children":[2,-1,4,-1,-1],"split_conditions":[1E0,-4.5592766E-2,1E0,6.383692E-1,-2.0221944E-3],"split_indices":[39,0,67,0,0],"split_type":[0,0,0,0,0],"sum_hessian":[9.7894104E1,9.332539E1,4.568709E0,2.3319452E0,2.2367637E0],"tree_param":{"num_deleted":"0","num_feature":"132","num_nodes":"5","size_leaf_vector":"1"}},{"base_weights":[-0E0,-4.4979718E-2,2.116964E0,-0E0,3.4922354E0,-1.578324E-2,2.3644377E-2,5.661669E-1,-1.1656198E-2],"categories":[],"categories_nodes":[],"categories_segments":[],"categories_sizes":[],"default_left":[0,0,0,0,0,0,0,0,0],"id":21,"left_children":[1,-1,3,5,7,-1,-1,-1,-1],"loss_changes":[1.0242003E2,0E0,5.4280457E1,6.6544044E-1,9.791707E1,0E0,0E0,0E0,0E0],"parents":[2147483647,0,0,2,2,3,3,4,4],"right_children":[2,-1,4,6,8,-1,-1,-1,-1],"split_conditions":[1E0,-4.4979718E-2,1E0,1E0,1E0,-1.578324E-2,2.3644377E-2,5.661669E-1,-1.1656198E-2],"split_indices":[56,0,41,122,45,0,0,0,0],"split_type":[0,0,0,0,0,0,0,0,0],"sum_hessian":[9.7560974E1,8.3712074E1,1.3848899E1,7.4717426E0,6.3771563E0,5.044616E0,2.4271266E0,2.379536E0,3.9976203E0],"tree_param":{"num_deleted":"0","num_feature":"132","num_nodes":"9","size_leaf_vector":"1"}},{"base_weights":[-0E0,-4.6700086E-2,6.2914664E-1],"categories":[],"categories_nodes":[],"categories_segments":[],"categories_sizes":[],"default_left":[0,0,0],"id":22,"left_children":[1,-1,-1],"loss_changes":[3.1020264E2,0E0,0E0],"parents":[2147483647,0,0],"right_children":[2,-1,-1],"split_conditions":[1E0,-4.6700086E-2,6.2914664E-1],"split_indices":[3,0,0],"split_type":[0,0,0],"sum_hessian":[9.7560974E1,9.527662E1,2.2843544E0],"tree_param":{"num_deleted":"0","num_feature":"132","num_nodes":"3","size_leaf_vector":"1"}},{"base_weights":[2.0106666E-2,-4.5788385E-2,6.653323E-1],"categories":[],"categories_nodes":[],"categories_segments":[],"categories_sizes":[],"default_left":[0,0,0],"id":23,"left_children":[1,-1,-1],"loss_changes":[3.52192E2,0E0,0E0],"parents":[2147483647,0,0],"right_children":[2,-1,-1],"split_conditions":[1E0,-4.5788385E-2,6.653323E-1],"split_indices":[58,0,0],"split_type":[0,0,0],"sum_hessian":[9.932183E1,9.684711E1,2.4747174E0],"tree_param":{"num_deleted":"0","num_feature":"132","num_nodes":"3","size_leaf_vector":"1"}},{"base_weights":[-1.6276937E-2,-4.758604E-2,4.5126505E0,-3.2839403E-3,6.198027E-1],"categories":[],"categories_nodes":[],"categories_segments":[],"categories_sizes":[],"default_left":[0,0,0,0,0],"id":24,"left_children":[1,-1,3,-1,-1],"loss_changes":[2.1878584E2,0E0,8.121661E1,0E0,0E0],"parents":[2147483647,0,0,2,2],"right_children":[2,-1,4,-1,-1],"split_conditions":[1E0,-4.758604E-2,1E0,-3.2839403E-3,6.198027E-1],"split_indices":[70,0,53,0,0],"split_type":[0,0,0,0,0],"sum_hessian":[9.68947E1,9.223081E1,4.6638904E0,2.4271266E0,2.2367637E0],"tree_param":{"num_deleted":"0","num_feature":"132","num_nodes":"5","size_leaf_vector":"1"}},{"base_weights":[-0E0,-4.7740635E-2,6.474728E-1],"categories":[],"categories_nodes":[],"categories_segments":[],"categories_sizes":[],"default_left":[0,0,0],"id":25,"left_children":[1,-1,-1],"loss_changes":[3.3250244E2,0E0,0E0],"parents":[2147483647,0,0],"right_children":[2,-1,-1],"split_conditions":[1E0,-4.7740635E-2,6.474728E-1],"split_indices":[80,0,0],"split_type":[0,0,0],"sum_hessian":[9.889351E1,9.651398E1,2.379536E0],"tree_param":{"num_deleted":"0","num_feature":"132","num_nodes":"3","size_leaf_vector":"1"}},{"base_weights":[-2.493042E-2,-4.7738984E-2,6.198027E-1],"categories":[],"categories_nodes":[],"categories_segments":[],"categories_sizes":[],"default_left":[0,0,0],"id":26,"left_children":[1,-1,-1],"loss_changes":[3.0106406E2,0E0,0E0],"parents":[2147483647,0,0],"right_children":[2,-1,-1],"split_conditions":[1E0,-4.7738984E-2,6.198027E-1],"split_indices":[15,0,0],"split_type":[0,0,0],"sum_hessian":[9.870315E1,9.6466385E1,2.2367637E0],"tree_param":{"num_deleted":"0","num_feature":"132","num_nodes":"3","size_leaf_vector":"1"}},{"base_weights":[-3.7190836E-2,-4.6782773E-2,6.007414E-1],"categories":[],"categories_nodes":[],"categories_segments":[],"categories_sizes":[],"default_left":[0,0,0],"id":27,"left_children":[1,-1,-1],"loss_changes":[2.799415E2,0E0,0E0],"parents":[2147483647,0,0],"right_children":[2,-1,-1],"split_conditions":[1E0,-4.6782773E-2,6.007414E-1],"split_indices":[90,0,0],"split_type":[0,0,0],"sum_hessian":[9.927424E1,9.713265E1,2.1415823E0],"tree_param":{"num_deleted":"0","num_feature":"132","num_nodes":"3","size_leaf_vector":"1"}},{"base_weights":[-9.494574E-4,-4.533211E-2,3.0176E0,-1.18076615E-2,6.103352E-1],"categories":[],"categories_nodes":[],"categories_segments":[],"categories_sizes":[],"default_left":[0,0,0,0,0],"id":28,"left_children":[1,-1,3,-1,-1],"loss_changes":[1.4458302E2,0E0,1.426972E2,0E0,0E0],"parents":[2147483647,0,0,2,2],"right_children":[2,-1,4,-1,-1],"split_conditions":[1E0,-4.533211E-2,1E0,-1.18076615E-2,6.103352E-1],"split_indices":[127,0,55,0,0],"split_type":[0,0,0,0,0],"sum_hessian":[9.7751335E1,8.8994644E1,8.756692E0,6.567519E0,2.189173E0],"tree_param":{"num_deleted":"0","num_feature":"132","num_nodes":"5","size_leaf_vector":"1"}},{"base_weights":[-7.950361E-2,-4.7555294E-2,2.6432235E0,-4.5088716E-2,5.5078846E-1,-0E0,-1.4385964E-2],"categories":[],"categories_nodes":[],"categories_segments":[],"categories_sizes":[],"default_left":[0,0,0,0,0,0,0],"id":29,"left_children":[1,-1,3,5,-1,-1,-1],"loss_changes":[1.1758615E2,0E0,1.1301273E2,1.7580605E-1,0E0,0E0,0E0],"parents":[2147483647,0,0,2,2,3,3],"right_children":[2,-1,4,6,-1,-1,-1],"split_conditions":[1E0,-4.7555294E-2,1E0,1E0,5.5078846E-1,-0E0,-1.4385964E-2],"split_indices":[68,0,110,60,0,0,0],"split_type":[0,0,0,0,0,0,0],"sum_hessian":[1.0022605E2,9.142177E1,8.804283E0,6.900654E0,1.9036287E0,2.2367637E0,4.6638904E0],"tree_param":{"num_deleted":"0","num_feature":"132","num_nodes":"7","size_leaf_vector":"1"}},{"base_weights":[-4.656828E-2,-4.5806187E-1,5.811651E-1,-4.768888E-2,-0E0],"categories":[],"categories_nodes":[],"categories_segments":[],"categories_sizes":[],"default_left":[0,0,0,0,0],"id":30,"left_children":[1,3,-1,-1,-1],"loss_changes":[2.592077E2,1.311552E0,0E0,0E0,0E0],"parents":[2147483647,0,0,1,1],"right_children":[2,4,-1,-1,-1],"split_conditions":[1E0,1E0,5.811651E-1,-4.768888E-2,-0E0],"split_indices":[121,2,0,0,0],"split_type":[0,0,0,0,0],"sum_hessian":[9.922665E1,9.7180244E1,2.0464008E0,9.5038666E1,2.1415823E0],"tree_param":{"num_deleted":"0","num_feature":"132","num_nodes":"5","size_leaf_vector":"1"}},{"base_weights":[1.7533042E-2,-4.4724187E-1,6.474728E-1,-4.761451E-2,9.021613E-3],"categories":[],"categories_nodes":[],"categories_segments":[],"categories_sizes":[],"default_left":[0,0,0,0,0],"id":31,"left_children":[1,3,-1,-1,-1],"loss_changes":[3.29449E2,2.1628685E0,0E0,0E0,0E0],"parents":[2147483647,0,0,1,1],"right_children":[2,4,-1,-1,-1],"split_conditions":[1E0,1E0,6.474728E-1,-4.761451E-2,9.021613E-3],"split_indices":[46,73,0,0,0],"split_type":[0,0,0,0,0],"sum_hessian":[9.7941696E1,9.5562164E1,2.379536E0,9.299226E1,2.5698988E0],"tree_param":{"num_deleted":"0","num_feature":"132","num_nodes":"5","size_leaf_vector":"1"}},{"base_weights":[-7.0099615E-2,-4.5747243E-2,5.5078846E-1],"categories":[],"categories_nodes":[],"categories_segments":[],"categories_sizes":[],"default_left":[0,0,0],"id":32,"left_children":[1,-1,-1],"loss_changes":[2.3008318E2,0E0,0E0],"parents":[2147483647,0,0],"right_children":[2,-1,-1],"split_conditions":[1E0,-4.5747243E-2,5.5078846E-1],"split_indices":[4,0,0],"split_type":[0,0,0],"sum_hessian":[9.798929E1,9.6085655E1,1.9036287E0],"tree_param":{"num_deleted":"0","num_feature":"132","num_nodes":"3","size_leaf_vector":"1"}},{"base_weights":[-3.303309E-2,-4.6742868E-1,6.007414E-1,-4.765812E-2,-0E0],"categories":[],"categories_nodes":[],"categories_segments":[],"categories_sizes":[],"default_left":[0,0,0,0,0],"id":33,"left_children":[1,3,-1,-1,-1],"loss_changes":[2.7973724E2,4.0982246E-1,0E0,0E0,0E0],"parents":[2147483647,0,0,1,1],"right_children":[2,4,-1,-1,-1],"split_conditions":[1E0,1E0,6.007414E-1,-4.765812E-2,-0E0],"split_indices":[81,49,0,0,0],"split_type":[0,0,0,0,0],"sum_hessian":[9.837001E1,9.622843E1,2.1415823E0,9.418203E1,2.0464008E0],"tree_param":{"num_deleted":"0","num_feature":"132","num_nodes":"5","size_leaf_vector":"1"}},{"base_weights":[1.8761072E-2,-4.7693953E-2,6.7409253E-1],"categories":[],"categories_nodes":[],"categories_segments":[],"categories_sizes":[],"default_left":[0,0,0],"id":34,"left_children":[1,-1,-1],"loss_changes":[3.645665E2,0E0,0E0],"parents":[2147483647,0,0],"right_children":[2,-1,-1],"split_conditions":[1E0,-4.7693953E-2,6.7409253E-1],"split_indices":[95,0,0],"split_type":[0,0,0],"sum_hessian":[9.770374E1,9.5181435E1,2.522308E0],"tree_param":{"num_deleted":"0","num_feature":"132","num_nodes":"3","size_leaf_vector":"1"}},{"base_weights":[3.5246878E-3,-4.5765318E-2,6.474728E-1],"categories":[],"categories_nodes":[],"categories_segments":[],"categories_sizes":[],"default_left":[0,0,0],"id":35,"left_children":[1,-1,-1],"loss_changes":[3.306062E2,0E0,0E0],"parents":[2147483647,0,0],"right_children":[2,-1,-1],"split_conditions":[1E0,-4.5765318E-2,6.474728E-1],"split_indices":[100,0,0],"split_type":[0,0,0],"sum_hessian":[9.879833E1,9.641879E1,2.379536E0],"tree_param":{"num_deleted":"0","num_feature":"132","num_nodes":"3","size_leaf_vector":"1"}},{"base_weights":[9.8069645E-2,-4.75166E-2,4.682243E0,-1.227465E-2,7.403764E-1],"categories":[],"categories_nodes":[],"categories_segments":[],"categories_sizes":[],"default_left":[0,0,0,0,0],"id":36,"left_children":[1,-1,3,-1,-1],"loss_changes":[2.8459204E2,0E0,1.6931543E2,0E0,0E0],"parents":[2147483647,0,0,2,2],"right_children":[2,-1,4,-1,-1],"split_conditions":[1E0,-4.75166E-2,1E0,-1.227465E-2,7.403764E-1],"split_indices":[111,0,130,0,0],"split_type":[0,0,0,0,0],"sum_hessian":[9.746579E1,9.042236E1,7.043426E0,4.1403923E0,2.9030337E0],"tree_param":{"num_deleted":"0","num_feature":"132","num_nodes":"5","size_leaf_vector":"1"}},{"base_weights":[-0E0,-4.6766055E-1,6.474728E-1,-4.7661565E-2,-0E0],"categories":[],"categories_nodes":[],"categories_segments":[],"categories_sizes":[],"default_left":[0,0,0,0,0],"id":37,"left_children":[1,3,-1,-1,-1],"loss_changes":[3.3161948E2,2.9825783E-1,0E0,0E0,0E0],"parents":[2147483647,0,0,1,1],"right_children":[2,4,-1,-1,-1],"split_conditions":[1E0,1E0,6.474728E-1,-4.7661565E-2,-0E0],"split_indices":[7,23,0,0,0],"split_type":[0,0,0,0,0],"sum_hessian":[9.913146E1,9.675193E1,2.379536E0,9.4277214E1,2.4747174E0],"tree_param":{"num_deleted":"0","num_feature":"132","num_nodes":"5","size_leaf_vector":"1"}},{"base_weights":[1.7447334E-2,-4.581631E-1,6.653323E-1,-4.768888E-2,-0E0],"categories":[],"categories_nodes":[],"categories_segments":[],"categories_sizes":[],"default_left":[0,0,0,0,0],"id":38,"left_children":[1,3,-1,-1,-1],"loss_changes":[3.523382E2,1.2621155E0,0E0,0E0,0E0],"parents":[2147483647,0,0,1,1],"right_children":[2,4,-1,-1,-1],"split_conditions":[1E0,1E0,6.653323E-1,-4.768888E-2,-0E0],"split_indices":[24,17,0,0,0],"split_type":[0,0,0,0,0],"sum_hessian":[9.984533E1,9.7370605E1,2.4747174E0,9.5038666E1,2.3319452E0],"tree_param":{"num_deleted":"0","num_feature":"132","num_nodes":"5","size_leaf_vector":"1"}},{"base_weights":[-6.219241E-2,-4.665208E-1,5.610527E-1,-4.7582448E-2,-0E0],"categories":[],"categories_nodes":[],"categories_segments":[],"categories_sizes":[],"default_left":[0,0,0,0,0],"id":39,"left_children":[1,3,-1,-1,-1],"loss_changes":[2.4001569E2,3.9587784E-1,0E0,0E0,0E0],"parents":[2147483647,0,0,1,1],"right_children":[2,4,-1,-1,-1],"split_conditions":[1E0,1E0,5.610527E-1,-4.7582448E-2,-0E0],"split_indices":[16,75,0,0,0],"split_type":[0,0,0,0,0],"sum_hessian":[9.618084E1,9.422962E1,1.9512194E0,9.213563E1,2.0939915E0],"tree_param":{"num_deleted":"0","num_feature":"132","num_nodes":"5","size_leaf_vector":"1"}},{"base_weights":[7.636294E-2,-4.7509138E-2,4.288517E0,-1.4922656E-2,7.244114E-1],"categories":[],"categories_nodes":[],"categories_segments":[],"categories_sizes":[],"default_left":[0,0,0,0,0],"id":40,"left_children":[1,-1,3,-1,-1],"loss_changes":[2.5289355E2,0E0,1.7795427E2,0E0,0E0],"parents":[2147483647,0,0,2,2],"right_children":[2,-1,4,-1,-1],"split_conditions":[1E0,-4.7509138E-2,1E0,-1.4922656E-2,7.244114E-1],"split_indices":[64,0,68,0,0],"split_type":[0,0,0,0,0],"sum_hessian":[9.784651E1,9.0232E1,7.614515E0,4.8066626E0,2.8078523E0],"tree_param":{"num_deleted":"0","num_feature":"132","num_nodes":"5","size_leaf_vector":"1"}},{"base_weights":[-0E0,-4.557324E-1,5.0263256E-1,-4.74268E-2,-0E0,-2.9219224E-3,-0E0],"categories":[],"categories_nodes":[],"categories_segments":[],"categories_sizes":[],"default_left":[0,0,0,0,0,0,0],"id":41,"left_children":[1,3,-1,-1,5,-1,-1],"loss_changes":[2.4629135E2,6.548233E-1,0E0,0E0,6.29473E-3,0E0,0E0],"parents":[2147483647,0,0,1,1,4,4],"right_children":[2,4,-1,-1,6,-1,-1],"split_conditions":[1E0,1E0,5.0263256E-1,-4.74268E-2,1E0,-2.9219224E-3,-0E0],"split_indices":[120,61,0,0,44,0,0],"split_type":[0,0,0,0,0,0,0],"sum_hessian":[9.724523E1,9.330466E1,3.9405768E0,8.868202E1,4.6226287E0,2.3729243E0,2.2497041E0],"tree_param":{"num_deleted":"0","num_feature":"132","num_nodes":"7","size_leaf_vector":"1"}},{"base_weights":[-0E0,-4.1509334E-2,4.6869922E-1],"categories":[],"categories_nodes":[],"categories_segments":[],"categories_sizes":[],"default_left":[0,0,0],"id":42,"left_children":[1,-1,-1],"loss_changes":[2.0506737E2,0E0,0E0],"parents":[2147483647,0,0],"right_children":[2,-1,-1],"split_conditions":[1E0,-4.1509334E-2,4.6869922E-1],"split_indices":[69,0,0],"split_type":[0,0,0],"sum_hessian":[9.692741E1,9.3364044E1,3.5633612E0],"tree_param":{"num_deleted":"0","num_feature":"132","num_nodes":"3","size_leaf_vector":"1"}},{"base_weights":[-3.2502055E-2,-4.4658404E-2,4.7856435E-1],"categories":[],"categories_nodes":[],"categories_segments":[],"categories_sizes":[],"default_left":[0,0,0],"id":43,"left_children":[1,-1,-1],"loss_changes":[2.122873E2,0E0,0E0],"parents":[2147483647,0,0],"right_children":[2,-1,-1],"split_conditions":[1E0,-4.4658404E-2,4.7856435E-1],"split_indices":[87,0,0],"split_type":[0,0,0],"sum_hessian":[9.822271E1,9.4817955E1,3.4047532E0],"tree_param":{"num_deleted":"0","num_feature":"132","num_nodes":"3","size_leaf_vector":"1"}},{"base_weights":[-0E0,-4.6539675E-2,4.791599E-1],"categories":[],"categories_nodes":[],"categories_segments":[],"categories_sizes":[],"default_left":[0,0,0],"id":44,"left_children":[1,-1,-1],"loss_changes":[2.3971863E2,0E0,0E0],"parents":[2147483647,0,0],"right_children":[2,-1,-1],"split_conditions":[1E0,-4.6539675E-2,4.791599E-1],"split_indices":[33,0,0],"split_type":[0,0,0],"sum_hessian":[9.697087E1,9.244922E1,4.521656E0],"tree_param":{"num_deleted":"0","num_feature":"132","num_nodes":"3","size_leaf_vector":"1"}},{"base_weights":[-5.349741E-3,-4.1666254E-1,4.6566772E-1,-4.7544062E-2,4.212826E-1,-0E0,6.797499E-2],"categories":[],"categories_nodes":[],"categories_segments":[],"categories_sizes":[],"default_left":[0,0,0,0,0,0,0],"id":45,"left_children":[1,3,-1,-1,5,-1,-1],"loss_changes":[2.0412662E2,5.9804497E0,0E0,0E0,1.4923478E0,0E0,0E0],"parents":[2147483647,0,0,1,1,4,4],"right_children":[2,4,-1,-1,6,-1,-1],"split_conditions":[1E0,1E0,4.6566772E-1,-4.7544062E-2,1E0,-0E0,6.797499E-2],"split_indices":[123,25,0,0,71,0,0],"split_type":[0,0,0,0,0,0,0],"sum_hessian":[9.8603645E1,9.499062E1,3.613028E0,9.190066E1,3.0899653E0,1.7528065E0,1.3371587E0],"tree_param":{"num_deleted":"0","num_feature":"132","num_nodes":"7","size_leaf_vector":"1"}},{"base_weights":[-6.699255E-3,-4.464009E-1,4.6670458E-1,-4.7566917E-2,1.1762277E-2],"categories":[],"categories_nodes":[],"categories_segments":[],"categories_sizes":[],"default_left":[0,0,0,0,0],"id":46,"left_children":[1,3,-1,-1,-1],"loss_changes":[2.196556E2,2.2836094E0,0E0,0E0,0E0],"parents":[2147483647,0,0,1,1],"right_children":[2,4,-1,-1,-1],"split_conditions":[1E0,1E0,4.6670458E-1,-4.7566917E-2,1.1762277E-2],"split_indices":[66,79,0,0,0],"split_type":[0,0,0,0,0],"sum_hessian":[9.8870476E1,9.46978E1,4.172683E0,9.245628E1,2.241509E0],"tree_param":{"num_deleted":"0","num_feature":"132","num_nodes":"5","size_leaf_vector":"1"}},{"base_weights":[1.76194E-2,-4.6568212E-1,4.9502063E-1,-4.750521E-2,-0E0],"categories":[],"categories_nodes":[],"categories_segments":[],"categories_sizes":[],"default_left":[0,0,0,0,0],"id":47,"left_children":[1,3,-1,-1,-1],"loss_changes":[2.6122665E2,3.715973E-1,0E0,0E0,0E0],"parents":[2147483647,0,0,1,1],"right_children":[2,4,-1,-1,-1],"split_conditions":[1E0,1E0,4.9502063E-1,-4.750521E-2,-0E0],"split_indices":[67,39,0,0,0],"split_type":[0,0,0,0,0],"sum_hessian":[9.786223E1,9.3068474E1,4.7937546E0,9.0884605E1,2.1838658E0],"tree_param":{"num_deleted":"0","num_feature":"132","num_nodes":"5","size_leaf_vector":"1"}},{"base_weights":[-0E0,-4.175256E-1,4.807016E-1,-4.7579065E-2,4.082995E-2],"categories":[],"categories_nodes":[],"categories_segments":[],"categories_sizes":[],"default_left":[0,0,0,0,0],"id":48,"left_children":[1,3,-1,-1,-1],"loss_changes":[2.153486E2,5.8925953E0,0E0,0E0,0E0],"parents":[2147483647,0,0,1,1],"right_children":[2,4,-1,-1,-1],"split_conditions":[1E0,1E0,4.807016E-1,-4.7579065E-2,4.082995E-2],"split_indices":[124,73,0,0,0],"split_type":[0,0,0,0,0],"sum_hessian":[9.943352E1,9.587508E1,3.558439E0,9.266727E1,3.2078135E0],"tree_param":{"num_deleted":"0","num_feature":"132","num_nodes":"5","size_leaf_vector":"1"}},{"base_weights":[3.3758106E-3,-4.761338E-2,4.0460443E0,5.0537753E-1,-1.5300341E-3],"categories":[],"categories_nodes":[],"categories_segments":[],"categories_sizes":[],"default_left":[0,0,0,0,0],"id":49,"left_children":[1,-1,3,-1,-1],"loss_changes":[2.18114E2,0E0,5.4358612E1,0E0,0E0],"parents":[2147483647,0,0,2,2],"right_children":[2,-1,4,-1,-1],"split_conditions":[1E0,-4.761338E-2,1E0,5.0537753E-1,-1.5300341E-3],"split_indices":[91,0,6,0,0],"split_type":[0,0,0,0,0],"sum_hessian":[1.0070646E2,9.375029E1,6.956169E0,4.791653E0,2.1645162E0],"tree_param":{"num_deleted":"0","num_feature":"132","num_nodes":"5","size_leaf_vector":"1"}},{"base_weights":[9.174404E-2,-4.4672966E-1,2.044056E0,-4.675755E-2,-0E0,4.1368217E0,-2.8481556E-2,-0E0,-3.4173378E-3,5.4259056E-1,-5.712864E-3],"categories":[],"categories_nodes":[],"categories_segments":[],"categories_sizes":[],"default_left":[0,0,0,0,0,0,0,0,0,0,0],"id":50,"left_children":[1,3,5,-1,7,9,-1,-1,-1,-1,-1],"loss_changes":[1.1495249E2,5.0509644E-1,1.2510589E2,0E0,8.692035E-3,7.728357E1,0E0,0E0,0E0,0E0,0E0],"parents":[2147483647,0,0,1,1,2,2,4,4,5,5],"right_children":[2,4,6,-1,8,10,-1,-1,-1,-1,-1],"split_conditions":[1E0,1E0,1E0,-4.675755E-2,1E0,1E0,-2.8481556E-2,-0E0,-3.4173378E-3,5.4259056E-1,-5.712864E-3],"split_indices":[130,131,41,0,41,28,0,0,0,0,0],"split_type":[0,0,0,0,0,0,0,0,0,0,0],"sum_hessian":[9.848398E1,7.981392E1,1.8670061E1,7.4730316E1,5.083602E0,8.015226E0,1.0654835E1,2.6406426E0,2.4429595E0,5.1897697E0,2.8254564E0],"tree_param":{"num_deleted":"0","num_feature":"132","num_nodes":"11","size_leaf_vector":"1"}},{"base_weights":[-0E0,-4.761892E-2,4.8566437E-1],"categories":[],"categories_nodes":[],"categories_segments":[],"categories_sizes":[],"default_left":[0,0,0],"id":51,"left_children":[1,-1,-1],"loss_changes":[2.4868678E2,0E0,0E0],"parents":[2147483647,0,0],"right_children":[2,-1,-1],"split_conditions":[1E0,-4.761892E-2,4.8566437E-1],"split_indices":[22,0,0],"split_type":[0,0,0],"sum_hessian":[9.850363E1,9.391114E1,4.5924954E0],"tree_param":{"num_deleted":"0","num_feature":"132","num_nodes":"3","size_leaf_vector":"1"}},{"base_weights":[-1.6226988E-2,-4.7543433E-2,3.6275547E0,-3.222279E-3,4.6775493E-1],"categories":[],"categories_nodes":[],"categories_segments":[],"categories_sizes":[],"default_left":[0,0,0,0,0],"id":52,"left_children":[1,-1,3,-1,-1],"loss_changes":[1.792097E2,0E0,5.134532E1,0E0,0E0],"parents":[2147483647,0,0,2,2],"right_children":[2,-1,4,-1,-1],"split_conditions":[1E0,-4.7543433E-2,1E0,-3.222279E-3,4.6775493E-1],"split_indices":[6,0,60,0,0],"split_type":[0,0,0,0,0],"sum_hessian":[9.8832886E1,9.1876236E1,6.9566474E0,2.4190776E0,4.53757E0],"tree_param":{"num_deleted":"0","num_feature":"132","num_nodes":"5","size_leaf_vector":"1"}},{"base_weights":[-0E0,-4.76634E-2,4.9031982E-1],"categories":[],"categories_nodes":[],"categories_segments":[],"categories_sizes":[],"default_left":[0,0,0],"id":53,"left_children":[1,-1,-1],"loss_changes":[2.5581905E2,0E0,0E0],"parents":[2147483647,0,0],"right_children":[2,-1,-1],"split_conditions":[1E0,-4.76634E-2,4.9031982E-1],"split_indices":[48,0,0],"split_type":[0,0,0],"sum_hessian":[9.984744E1,9.515305E1,4.694391E0],"tree_param":{"num_deleted":"0","num_feature":"132","num_nodes":"3","size_leaf_vector":"1"}},{"base_weights":[-0E0,-4.459314E-1,4.8503265E-1,-4.7521822E-2,8.504191E-3],"categories":[],"categories_nodes":[],"categories_segments":[],"categories_sizes":[],"default_left":[0,0,0,0,0],"id":54,"left_children":[1,3,-1,-1,-1],"loss_changes":[2.3687143E2,2.1308155E0,0E0,0E0,0E0],"parents":[2147483647,0,0,1,1],"right_children":[2,4,-1,-1,-1],"split_conditions":[1E0,1E0,4.8503265E-1,-4.7521822E-2,8.504191E-3],"split_indices":[54,23,0,0,0],"split_type":[0,0,0,0,0],"sum_hessian":[9.817264E1,9.394031E1,4.232327E0,9.131218E1,2.6281273E0],"tree_param":{"num_deleted":"0","num_feature":"132","num_nodes":"5","size_leaf_vector":"1"}},{"base_weights":[-0E0,-4.2315525E-1,3.8247197E0,-4.740038E-2,3.2525077E-2,4.705115E-1,-0E0],"categories":[],"categories_nodes":[],"categories_segments":[],"categories_sizes":[],"default_left":[0,0,0,0,0,0,0],"id":55,"left_children":[1,3,5,-1,-1,-1,-1],"loss_changes":[1.741058E2,4.5757656E0,4.047838E1,0E0,0E0,0E0,0E0],"parents":[2147483647,0,0,1,1,2,2],"right_children":[2,4,6,-1,-1,-1,-1],"split_conditions":[1E0,1E0,1E0,-4.740038E-2,3.2525077E-2,4.705115E-1,-0E0],"split_indices":[17,108,24,0,0,0,0],"split_type":[0,0,0,0,0,0,0],"sum_hessian":[9.680061E1,9.1074776E1,5.7258325E0,8.824838E1,2.8263984E0,3.9158943E0,1.8099383E0],"tree_param":{"num_deleted":"0","num_feature":"132","num_nodes":"7","size_leaf_vector":"1"}},{"base_weights":[-0E0,-4.3640944E-1,4.7068167E-1,-4.7059473E-2,-1.18297964E-1,-0E0,-2.0489197E-2],"categories":[],"categories_nodes":[],"categories_segments":[],"categories_sizes":[],"default_left":[0,0,0,0,0,0,0],"id":56,"left_children":[1,3,-1,-1,5,-1,-1],"loss_changes":[2.2066971E2,2.1728325E-1,0E0,0E0,2.1786782E-1,0E0,0E0],"parents":[2147483647,0,0,1,1,4,4],"right_children":[2,4,-1,-1,6,-1,-1],"split_conditions":[1E0,1E0,4.7068167E-1,-4.7059473E-2,1E0,-0E0,-2.0489197E-2],"split_indices":[74,101,0,0,45,0,0],"split_type":[0,0,0,0,0,0,0],"sum_hessian":[9.883247E1,9.472916E1,4.103314E0,8.0534424E1,1.4194734E1,7.606394E0,6.5883393E0],"tree_param":{"num_deleted":"0","num_feature":"132","num_nodes":"7","size_leaf_vector":"1"}},{"base_weights":[-1.32469935E-2,-4.0614125E-1,4.384923E-1,-4.7552135E-2,6.359591E-2],"categories":[],"categories_nodes":[],"categories_segments":[],"categories_sizes":[],"default_left":[0,0,0,0,0],"id":57,"left_children":[1,3,-1,-1,-1],"loss_changes":[1.8333054E2,8.549984E0,0E0,0E0,0E0],"parents":[2147483647,0,0,1,1],"right_children":[2,4,-1,-1,-1],"split_conditions":[1E0,1E0,4.384923E-1,-4.7552135E-2,6.359591E-2],"split_indices":[119,2,0,0,0],"split_type":[0,0,0,0,0],"sum_hessian":[9.82426E1,9.4561E1,3.681606E0,9.2106834E1,2.4541638E0],"tree_param":{"num_deleted":"0","num_feature":"132","num_nodes":"5","size_leaf_vector":"1"}},{"base_weights":[-4.1333795E-2,-4.4522744E-2,4.7473755E-1],"categories":[],"categories_nodes":[],"categories_segments":[],"categories_sizes":[],"default_left":[0,0,0],"id":58,"left_children":[1,-1,-1],"loss_changes":[2.0148424E2,0E0,0E0],"parents":[2147483647,0,0],"right_children":[2,-1,-1],"split_conditions":[1E0,-4.4522744E-2,4.7473755E-1],"split_indices":[29,0,0],"split_type":[0,0,0],"sum_hessian":[9.593333E1,9.284635E1,3.0869775E0],"tree_param":{"num_deleted":"0","num_feature":"132","num_nodes":"3","size_leaf_vector":"1"}},{"base_weights":[-0E0,-4.1546017E-2,1.7877722E0,2.8856952E0,-2.0381553E-2,4.68532E-1,-1.4677708E-2],"categories":[],"categories_nodes":[],"categories_segments":[],"categories_sizes":[],"default_left":[0,0,0,0,0,0,0],"id":59,"left_children":[1,-1,3,5,-1,-1,-1],"loss_changes":[7.988993E1,0E0,4.984469E1,8.2690475E1,0E0,0E0,0E0],"parents":[2147483647,0,0,2,2,3,3],"right_children":[2,-1,4,6,-1,-1,-1],"split_conditions":[1E0,-4.1546017E-2,1E0,1E0,-2.0381553E-2,4.68532E-1,-1.4677708E-2],"split_indices":[110,0,45,53,0,0,0],"split_type":[0,0,0,0,0,0,0],"sum_hessian":[9.8582634E1,8.335861E1,1.5224028E1,8.690517E0,6.53351E0,3.9505656E0,4.7399516E0],"tree_param":{"num_deleted":"0","num_feature":"132","num_nodes":"7","size_leaf_vector":"1"}},{"base_weights":[1.6698783E-2,-4.767197E-2,5.232437E-1],"categories":[],"categories_nodes":[],"categories_segments":[],"categories_sizes":[],"default_left":[0,0,0],"id":60,"left_children":[1,-1,-1],"loss_changes":[2.872974E2,0E0,0E0],"parents":[2147483647,0,0],"right_children":[2,-1,-1],"split_conditions":[1E0,-4.767197E-2,5.232437E-1],"split_indices":[89,0,0],"split_type":[0,0,0],"sum_hessian":[9.994084E1,9.527858E1,4.662259E0],"tree_param":{"num_deleted":"0","num_feature":"132","num_nodes":"3","size_leaf_vector":"1"}},{"base_weights":[2.9685223E-2,-4.5387577E-2,3.911826E0,4.9583554E-1,-2.571015E-3],"categories":[],"categories_nodes":[],"categories_segments":[],"categories_sizes":[],"default_left":[0,0,0,0,0],"id":61,"left_children":[1,-1,3,-1,-1],"loss_changes":[2.045938E2,0E0,5.5401108E1,0E0,0E0],"parents":[2147483647,0,0,2,2],"right_children":[2,-1,4,-1,-1],"split_conditions":[1E0,-4.5387577E-2,1E0,4.9583554E-1,-2.571015E-3],"split_indices":[39,0,14,0,0],"split_type":[0,0,0,0,0],"sum_hessian":[9.741483E1,9.032211E1,7.0927176E0,4.77998E0,2.3127377E0],"tree_param":{"num_deleted":"0","num_feature":"132","num_nodes":"5","size_leaf_vector":"1"}},{"base_weights":[-4.8365586E-2,-4.517049E-2,1.9884174E0,2.9095366E0,-1.4867817E-2,3.5941073E-1,-1.5694656E-3],"categories":[],"categories_nodes":[],"categories_segments":[],"categories_sizes":[],"default_left":[0,0,0,0,0,0,0],"id":62,"left_children":[1,-1,3,5,-1,-1,-1],"loss_changes":[8.8875565E1,0E0,3.9970863E1,2.9916199E1,0E0,0E0,0E0],"parents":[2147483647,0,0,2,2,3,3],"right_children":[2,-1,4,6,-1,-1,-1],"split_conditions":[1E0,-4.517049E-2,1E0,1E0,-1.4867817E-2,3.5941073E-1,-1.5694656E-3],"split_indices":[28,0,45,64,0,0,0],"split_type":[0,0,0,0,0,0,0],"sum_hessian":[9.9589005E1,8.678523E1,1.2803772E1,8.011432E0,4.7923393E0,5.842678E0,2.168754E0],"tree_param":{"num_deleted":"0","num_feature":"132","num_nodes":"7","size_leaf_vector":"1"}},{"base_weights":[1.21168485E-2,-4.756613E-2,5.065816E-1],"categories":[],"categories_nodes":[],"categories_segments":[],"categories_sizes":[],"default_left":[0,0,0],"id":63,"left_children":[1,-1,-1],"loss_changes":[2.6819226E2,0E0,0E0],"parents":[2147483647,0,0],"right_children":[2,-1,-1],"split_conditions":[1E0,-4.756613E-2,5.065816E-1],"split_indices":[107,0,0],"split_type":[0,0,0],"sum_hessian":[9.7046844E1,9.245473E1,4.592123E0],"tree_param":{"num_deleted":"0","num_feature":"132","num_nodes":"3","size_leaf_vector":"1"}},{"base_weights":[3.6179926E-2,-4.1431937E-2,1.9833418E0,3.7587543E0,-2.4993934E-2,4.656969E-1,-1.0330607E-3],"categories":[],"categories_nodes":[],"categories_segments":[],"categories_sizes":[],"default_left":[0,0,0,0,0,0,0],"id":64,"left_children":[1,-1,3,5,-1,-1,-1],"loss_changes":[9.6048874E1,0E0,9.003637E1,4.571205E1,0E0,0E0,0E0],"parents":[2147483647,0,0,2,2,3,3],"right_children":[2,-1,4,6,-1,-1,-1],"split_conditions":[1E0,-4.1431937E-2,1E0,1E0,-2.4993934E-2,4.656969E-1,-1.0330607E-3],"split_indices":[18,0,26,110,0,0,0],"split_type":[0,0,0,0,0,0,0],"sum_hessian":[9.8022896E1,8.238473E1,1.5638169E1,7.0589237E0,8.579246E0,4.9635253E0,2.0953984E0],"tree_param":{"num_deleted":"0","num_feature":"132","num_nodes":"7","size_leaf_vector":"1"}},{"base_weights":[-1.4222105E-2,-4.7541287E-2,3.7503717E0,-2.9605401E-3,4.8468477E-1],"categories":[],"categories_nodes":[],"categories_segments":[],"categories_sizes":[],"default_left":[0,0,0,0,0],"id":65,"left_children":[1,-1,3,-1,-1],"loss_changes":[1.8522682E2,0E0,5.367366E1,0E0,0E0],"parents":[2147483647,0,0,2,2],"right_children":[2,-1,4,-1,-1],"split_conditions":[1E0,-4.7541287E-2,1E0,-2.9605401E-3,4.8468477E-1],"split_indices":[70,0,1,0,0],"split_type":[0,0,0,0,0],"sum_hessian":[9.843702E1,9.182231E1,6.6147094E0,2.3761578E0,4.2385516E0],"tree_param":{"num_deleted":"0","num_feature":"132","num_nodes":"5","size_leaf_vector":"1"}},{"base_weights":[-0E0,-4.7634993E-2,4.8910433E-1],"categories":[],"categories_nodes":[],"categories_segments":[],"categories_sizes":[],"default_left":[0,0,0],"id":66,"left_children":[1,-1,-1],"loss_changes":[2.5057033E2,0E0,0E0],"parents":[2147483647,0,0],"right_children":[2,-1,-1],"split_conditions":[1E0,-4.7634993E-2,4.8910433E-1],"split_indices":[80,0,0],"split_type":[0,0,0],"sum_hessian":[9.8892006E1,9.436012E1,4.5318837E0],"tree_param":{"num_deleted":"0","num_feature":"132","num_nodes":"3","size_leaf_vector":"1"}},{"base_weights":[1.8635927E-3,-4.763948E-2,5.063082E-1],"categories":[],"categories_nodes":[],"categories_segments":[],"categories_sizes":[],"default_left":[0,0,0],"id":67,"left_children":[1,-1,-1],"loss_changes":[2.6859314E2,0E0,0E0],"parents":[2147483647,0,0],"right_children":[2,-1,-1],"split_conditions":[1E0,-4.763948E-2,5.063082E-1],"split_indices":[36,0,0],"split_type":[0,0,0],"sum_hessian":[9.908553E1,9.448864E1,4.596892E0],"tree_param":{"num_deleted":"0","num_feature":"132","num_nodes":"3","size_leaf_vector":"1"}},{"base_weights":[-2.8020317E-2,-4.667875E-2,4.8153692E-1],"categories":[],"categories_nodes":[],"categories_segments":[],"categories_sizes":[],"default_left":[0,0,0],"id":68,"left_children":[1,-1,-1],"loss_changes":[2.2860826E2,0E0,0E0],"parents":[2147483647,0,0],"right_children":[2,-1,-1],"split_conditions":[1E0,-4.667875E-2,4.8153692E-1],"split_indices":[128,0,0],"split_type":[0,0,0],"sum_hessian":[9.9332E1,9.5413025E1,3.9189703E0],"tree_param":{"num_deleted":"0","num_feature":"132","num_nodes":"3","size_leaf_vector":"1"}},{"base_weights":[-0E0,-4.5268223E-2,2.726352E0,-3.298942E-2,4.8773533E-1,-1.3978066E-2,-0E0],"categories":[],"categories_nodes":[],"categories_segments":[],"categories_sizes":[],"default_left":[0,0,0,0,0,0,0],"id":69,"left_children":[1,-1,3,5,-1,-1,-1],"loss_changes":[1.3507025E2,0E0,9.8220535E1,1.7410915E-1,0E0,0E0,0E0],"parents":[2147483647,0,0,2,2,3,3],"right_children":[2,-1,4,6,-1,-1,-1],"split_conditions":[1E0,-4.5268223E-2,1E0,1E0,4.8773533E-1,-1.3978066E-2,-0E0],"split_indices":[127,0,131,122,0,0,0],"split_type":[0,0,0,0,0,0,0],"sum_hessian":[9.8999916E1,8.8403244E1,1.0596668E1,6.5949583E0,4.0017095E0,4.5568595E0,2.0380993E0],"tree_param":{"num_deleted":"0","num_feature":"132","num_nodes":"7","size_leaf_vector":"1"}},{"base_weights":[-0E0,-4.7369253E-2,2.6106374E0,1.5770458E-3,4.8147684E-1,-1.5917992E-2,3.4166694E-2],"categories":[],"categories_nodes":[],"categories_segments":[],"categories_sizes":[],"default_left":[0,0,0,0,0,0,0],"id":70,"left_children":[1,-1,3,5,-1,-1,-1],"loss_changes":[1.3318954E2,0E0,9.0017784E1,1.1522601E0,0E0,0E0,0E0],"parents":[2147483647,0,0,2,2,3,3],"right_children":[2,-1,4,6,-1,-1,-1],"split_conditions":[1E0,-4.7369253E-2,1E0,1E0,4.8147684E-1,-1.5917992E-2,3.4166694E-2],"split_indices":[68,0,110,31,0,0,0],"split_type":[0,0,0,0,0,0,0],"sum_hessian":[9.898296E1,8.748551E1,1.14974575E1,7.764171E0,3.7332861E0,5.0815253E0,2.682646E0],"tree_param":{"num_deleted":"0","num_feature":"132","num_nodes":"7","size_leaf_vector":"1"}},{"base_weights":[5.6869764E-2,-4.4651675E-1,5.320657E-1,-4.757162E-2,1.138595E-2],"categories":[],"categories_nodes":[],"categories_segments":[],"categories_sizes":[],"default_left":[0,0,0,0,0],"id":71,"left_children":[1,3,-1,-1,-1],"loss_changes":[2.9383777E2,2.2670422E0,0E0,0E0,0E0],"parents":[2147483647,0,0,1,1],"right_children":[2,4,-1,-1,-1],"split_conditions":[1E0,1E0,5.320657E-1,-4.757162E-2,1.138595E-2],"split_indices":[121,106,0,0,0],"split_type":[0,0,0,0,0],"sum_hessian":[9.957139E1,9.4883385E1,4.688006E0,9.2598274E1,2.2851038E0],"tree_param":{"num_deleted":"0","num_feature":"132","num_nodes":"5","size_leaf_vector":"1"}},{"base_weights":[4.757718E-3,-4.6614516E-1,5.011112E-1,-4.753914E-2,-0E0],"categories":[],"categories_nodes":[],"categories_segments":[],"categories_sizes":[],"default_left":[0,0,0,0,0],"id":72,"left_children":[1,3,-1,-1,-1],"loss_changes":[2.6021674E2,3.4840012E-1,0E0,0E0,0E0],"parents":[2147483647,0,0,1,1],"right_children":[2,4,-1,-1,-1],"split_conditions":[1E0,1E0,5.011112E-1,-4.753914E-2,-0E0],"split_indices":[57,112,0,0,0],"split_type":[0,0,0,0,0],"sum_hessian":[9.84959E1,9.398982E1,4.50608E0,9.171822E1,2.2715983E0],"tree_param":{"num_deleted":"0","num_feature":"132","num_nodes":"5","size_leaf_vector":"1"}},{"base_weights":[-0E0,1.6130982E-1,-3.963294E-2,3.1305298E-1,-3.2542955E-2,4.677963E-2,-2.7252201E-2],"categories":[],"categories_nodes":[],"categories_segments":[],"categories_sizes":[],"default_left":[0,0,0,0,0,0,0],"id":73,"left_children":[1,3,-1,5,-1,-1,-1],"loss_changes":[6.818235E0,6.1466966E0,0E0,6.489522E0,0E0,0E0,0E0],"parents":[2147483647,0,0,1,1,3,3],"right_children":[2,4,-1,6,-1,-1,-1],"split_conditions":[1E0,1E0,-3.963294E-2,1E0,-3.2542955E-2,4.677963E-2,-2.7252201E-2],"split_indices":[45,0,0,53,0,0,0],"split_type":[0,0,0,0,0,0,0],"sum_hessian":[9.7228E1,7.149254E1,2.5735458E1,5.742783E1,1.406471E1,4.757034E1,9.857491E0],"tree_param":{"num_deleted":"0","num_feature":"132","num_nodes":"7","size_leaf_vector":"1"}},{"base_weights":[-0E0,-4.3506417E-2,3.6226635E0,4.817911E-1,-4.5740744E-3],"categories":[],"categories_nodes":[],"categories_segments":[],"categories_sizes":[],"default_left":[0,0,0,0,0],"id":74,"left_children":[1,-1,3,-1,-1],"loss_changes":[1.725209E2,0E0,5.7317215E1,0E0,0E0],"parents":[2147483647,0,0,2,2],"right_children":[2,-1,4,-1,-1],"split_conditions":[1E0,-4.3506417E-2,1E0,4.817911E-1,-4.5740744E-3],"split_indices":[49,0,44,0,0],"split_type":[0,0,0,0,0],"sum_hessian":[9.971626E1,9.29837E1,6.7325587E0,4.1018996E0,2.630659E0],"tree_param":{"num_deleted":"0","num_feature":"132","num_nodes":"5","size_leaf_vector":"1"}},{"base_weights":[-2.2324704E-2,-4.7612082E-2,4.664416E-1],"categories":[],"categories_nodes":[],"categories_segments":[],"categories_sizes":[],"default_left":[0,0,0],"id":75,"left_children":[1,-1,-1],"loss_changes":[2.2617749E2,0E0,0E0],"parents":[2147483647,0,0],"right_children":[2,-1,-1],"split_conditions":[1E0,-4.7612082E-2,4.664416E-1],"split_indices":[95,0,0],"split_type":[0,0,0],"sum_hessian":[9.809344E1,9.372399E1,4.3694515E0],"tree_param":{"num_deleted":"0","num_feature":"132","num_nodes":"3","size_leaf_vector":"1"}},{"base_weights":[-0E0,-4.459753E-1,4.7828254E-1,-4.720475E-2,-8.6251326E-2,-2.4310999E-2,1.2392549E-2],"categories":[],"categories_nodes":[],"categories_segments":[],"categories_sizes":[],"default_left":[0,0,0,0,0,0,0],"id":76,"left_children":[1,3,-1,-1,5,-1,-1],"loss_changes":[2.3357231E2,1.6708946E-1,0E0,0E0,7.7765024E-1,0E0,0E0],"parents":[2147483647,0,0,1,1,4,4],"right_children":[2,4,-1,-1,6,-1,-1],"split_conditions":[1E0,1E0,4.7828254E-1,-4.720475E-2,1E0,-2.4310999E-2,1.2392549E-2],"split_indices":[100,56,0,0,101,0,0],"split_type":[0,0,0,0,0,0,0],"sum_hessian":[9.8398544E1,9.404912E1,4.349426E0,8.364548E1,1.0403641E1,8.233368E0,2.1702728E0],"tree_param":{"num_deleted":"0","num_feature":"132","num_nodes":"7","size_leaf_vector":"1"}},{"base_weights":[4.2217758E-2,-4.759349E-2,4.9545345E-1],"categories":[],"categories_nodes":[],"categories_segments":[],"categories_sizes":[],"default_left":[0,0,0],"id":77,"left_children":[1,-1,-1],"loss_changes":[2.801402E2,0E0,0E0],"parents":[2147483647,0,0],"right_children":[2,-1,-1],"split_conditions":[1E0,-4.759349E-2,4.9545345E-1],"split_indices":[11,0,0],"split_type":[0,0,0],"sum_hessian":[9.866885E1,9.3154854E1,5.5140023E0],"tree_param":{"num_deleted":"0","num_feature":"132","num_nodes":"3","size_leaf_vector":"1"}},{"base_weights":[-3.84092E-2,-4.7598094E-2,4.611902E-1],"categories":[],"categories_nodes":[],"categories_segments":[],"categories_sizes":[],"default_left":[0,0,0],"id":78,"left_children":[1,-1,-1],"loss_changes":[2.1517535E2,0E0,0E0],"parents":[2147483647,0,0],"right_children":[2,-1,-1],"split_conditions":[1E0,-4.7598094E-2,4.611902E-1],"split_indices":[7,0,0],"split_type":[0,0,0],"sum_hessian":[9.7383934E1,9.330742E1,4.0765104E0],"tree_param":{"num_deleted":"0","num_feature":"132","num_nodes":"3","size_leaf_vector":"1"}},{"base_weights":[-1.838516E-2,-4.454362E-1,4.5105553E-1,-4.7493864E-2,8.608703E-3],"categories":[],"categories_nodes":[],"categories_segments":[],"categories_sizes":[],"default_left":[0,0,0,0,0],"id":79,"left_children":[1,3,-1,-1,-1],"loss_changes":[2.037822E2,2.1333523E0,0E0,0E0,0E0],"parents":[2147483647,0,0,1,1],"right_children":[2,4,-1,-1,-1],"split_conditions":[1E0,1E0,4.5105553E-1,-4.7493864E-2,8.608703E-3],"split_indices":[9,17,0,0,0],"split_type":[0,0,0,0,0],"sum_hessian":[9.7271164E1,9.3210976E1,4.0601826E0,9.059608E1,2.6149025E0],"tree_param":{"num_deleted":"0","num_feature":"132","num_nodes":"5","size_leaf_vector":"1"}},{"base_weights":[-6.9418825E-2,-4.763495E-2,4.6134263E-1],"categories":[],"categories_nodes":[],"categories_segments":[],"categories_sizes":[],"default_left":[0,0,0],"id":80,"left_children":[1,-1,-1],"loss_changes":[2.027707E2,0E0,0E0],"parents":[2147483647,0,0],"right_children":[2,-1,-1],"split_conditions":[1E0,-4.763495E-2,4.6134263E-1],"split_indices":[85,0,0],"split_type":[0,0,0],"sum_hessian":[9.7812996E1,9.432156E1,3.4914374E0],"tree_param":{"num_deleted":"0","num_feature":"132","num_nodes":"3","size_leaf_vector":"1"}},{"base_weights":[-0E0,-4.7400527E-2,2.9304452E0,4.7124955E-1,-1.598185E-2],"categories":[],"categories_nodes":[],"categories_segments":[],"categories_sizes":[],"default_left":[0,0,0,0,0],"id":81,"left_children":[1,-1,3,-1,-1],"loss_changes":[1.4938258E2,0E0,9.068031E1,0E0,0E0],"parents":[2147483647,0,0,2,2],"right_children":[2,-1,4,-1,-1],"split_conditions":[1E0,-4.7400527E-2,1E0,4.7124955E-1,-1.598185E-2],"split_indices":[64,0,63,0,0],"split_type":[0,0,0,0,0],"sum_hessian":[9.819522E1,8.823938E1,9.955848E0,4.8549905E0,5.100857E0],"tree_param":{"num_deleted":"0","num_feature":"132","num_nodes":"5","size_leaf_vector":"1"}},{"base_weights":[-0E0,-4.5493263E-1,3.8104227E-1,-4.7361743E-2,-0E0,-0E0,-9.641245E-4],"categories":[],"categories_nodes":[],"categories_segments":[],"categories_sizes":[],"default_left":[0,0,0,0,0,0,0],"id":82,"left_children":[1,3,-1,-1,5,-1,-1],"loss_changes":[1.8938246E2,6.815605E-1,0E0,0E0,6.585508E-4,0E0,0E0],"parents":[2147483647,0,0,1,1,4,4],"right_children":[2,4,-1,-1,6,-1,-1],"split_conditions":[1E0,1E0,3.8104227E-1,-4.7361743E-2,1E0,-0E0,-9.641245E-4],"split_indices":[120,61,0,0,73,0,0],"split_type":[0,0,0,0,0,0,0],"sum_hessian":[9.919336E1,9.254025E1,6.653106E0,8.8034325E1,4.505928E0,2.4212024E0,2.0847256E0],"tree_param":{"num_deleted":"0","num_feature":"132","num_nodes":"7","size_leaf_vector":"1"}},{"base_weights":[-3.6759607E-2,-4.254663E-2,3.6600843E-1],"categories":[],"categories_nodes":[],"categories_segments":[],"categories_sizes":[],"default_left":[0,0,0],"id":83,"left_children":[1,-1,-1],"loss_changes":[1.5398361E2,0E0,0E0],"parents":[2147483647,0,0],"right_children":[2,-1,-1],"split_conditions":[1E0,-4.254663E-2,3.6600843E-1],"split_indices":[38,0,0],"split_type":[0,0,0],"sum_hessian":[9.8989746E1,9.3820045E1,5.1697044E0],"tree_param":{"num_deleted":"0","num_feature":"132","num_nodes":"3","size_leaf_vector":"1"}},{"base_weights":[-0E0,-4.129901E-2,3.7309024E-1],"categories":[],"categories_nodes":[],"categories_segments":[],"categories_sizes":[],"default_left":[0,0,0],"id":84,"left_children":[1,-1,-1],"loss_changes":[1.6220169E2,0E0,0E0],"parents":[2147483647,0,0],"right_children":[2,-1,-1],"split_conditions":[1E0,-4.129901E-2,3.7309024E-1],"split_indices":[87,0,0],"split_type":[0,0,0],"sum_hessian":[9.705164E1,9.158236E1,5.4692793E0],"tree_param":{"num_deleted":"0","num_feature":"132","num_nodes":"3","size_leaf_vector":"1"}},{"base_weights":[6.7515355E-3,-4.641108E-2,3.727427E-1],"categories":[],"categories_nodes":[],"categories_segments":[],"categories_sizes":[],"default_left":[0,0,0],"id":85,"left_children":[1,-1,-1],"loss_changes":[1.9207478E2,0E0,0E0],"parents":[2147483647,0,0],"right_children":[2,-1,-1],"split_conditions":[1E0,-4.641108E-2,3.727427E-1],"split_indices":[47,0,0],"split_type":[0,0,0],"sum_hessian":[9.783642E1,9.0491936E1,7.3444777E0],"tree_param":{"num_deleted":"0","num_feature":"132","num_nodes":"3","size_leaf_vector":"1"}},{"base_weights":[-0E0,-4.033845E-1,3.611887E-1,-4.7400597E-2,5.4320127E-1,-0E0,8.38761E-2],"categories":[],"categories_nodes":[],"categories_segments":[],"categories_sizes":[],"default_left":[0,0,0,0,0,0,0],"id":86,"left_children":[1,3,-1,-1,5,-1,-1],"loss_changes":[1.5629488E2,7.7231064E0,0E0,0E0,2.0634587E0,0E0,0E0],"parents":[2147483647,0,0,1,1,4,4],"right_children":[2,4,-1,-1,6,-1,-1],"split_conditions":[1E0,1E0,3.611887E-1,-4.7400597E-2,1E0,-0E0,8.38761E-2],"split_indices":[97,25,0,0,71,0,0],"split_type":[0,0,0,0,0,0,0],"sum_hessian":[9.807377E1,9.230693E1,5.7668343E0,8.920437E1,3.1025655E0,1.7711701E0,1.3313954E0],"tree_param":{"num_deleted":"0","num_feature":"132","num_nodes":"7","size_leaf_vector":"1"}},{"base_weights":[-0E0,-4.4300815E-1,3.602377E-1,-4.7350448E-2,1.051279E-2],"categories":[],"categories_nodes":[],"categories_segments":[],"categories_sizes":[],"default_left":[0,0,0,0,0],"id":87,"left_children":[1,3,-1,-1,-1],"loss_changes":[1.6810864E2,2.2105904E0,0E0,0E0,0E0],"parents":[2147483647,0,0,1,1],"right_children":[2,4,-1,-1,-1],"split_conditions":[1E0,1E0,3.602377E-1,-4.7350448E-2,1.051279E-2],"split_indices":[66,79,0,0,0],"split_type":[0,0,0,0,0],"sum_hessian":[9.682904E1,9.03163E1,6.5127425E0,8.792937E1,2.386932E0],"tree_param":{"num_deleted":"0","num_feature":"132","num_nodes":"5","size_leaf_vector":"1"}},{"base_weights":[5.6627025E-3,-4.6079203E-2,2.276173E0,3.700318E-1,-1.9808915E-2],"categories":[],"categories_nodes":[],"categories_segments":[],"categories_sizes":[],"default_left":[0,0,0,0,0],"id":88,"left_children":[1,-1,3,-1,-1],"loss_changes":[1.1620726E2,0E0,7.3311035E1,0E0,0E0],"parents":[2147483647,0,0,2,2],"right_children":[2,-1,4,-1,-1],"split_conditions":[1E0,-4.6079203E-2,1E0,3.700318E-1,-1.9808915E-2],"split_indices":[14,0,18,0,0],"split_type":[0,0,0,0,0],"sum_hessian":[9.805794E1,8.428684E1,1.37710905E1,7.424317E0,6.346774E0],"tree_param":{"num_deleted":"0","num_feature":"132","num_nodes":"5","size_leaf_vector":"1"}},{"base_weights":[-0E0,-4.0478253E-1,3.7069207E-1,-4.7456615E-2,5.523147E-2],"categories":[],"categories_nodes":[],"categories_segments":[],"categories_sizes":[],"default_left":[0,0,0,0,0],"id":89,"left_children":[1,3,-1,-1,-1],"loss_changes":[1.6403845E2,7.8136806E0,0E0,0E0,0E0],"parents":[2147483647,0,0,1,1],"right_children":[2,4,-1,-1,-1],"split_conditions":[1E0,1E0,3.7069207E-1,-4.7456615E-2,5.523147E-2],"split_indices":[124,73,0,0,0],"split_type":[0,0,0,0,0],"sum_hessian":[9.929418E1,9.35314E1,5.7627807E0,9.049863E1,3.0327773E0],"tree_param":{"num_deleted":"0","num_feature":"132","num_nodes":"5","size_leaf_vector":"1"}},{"base_weights":[-1.0235144E-3,-4.311448E-1,2.4588816E0,-4.6948746E-2,-0E0,3.5239387E-1,-1.2513024E-2,-2.1306492E-2,2.3021538E-2],"categories":[],"categories_nodes":[],"categories_segments":[],"categories_sizes":[],"default_left":[0,0,0,0,0,0,0,0,0],"id":90,"left_children":[1,3,5,-1,7,-1,-1,-1,-1],"loss_changes":[1.13740814E2,1.1599522E0,4.9468613E1,0E0,9.365804E-1,0E0,0E0,0E0,0E0],"parents":[2147483647,0,0,1,1,2,2,4,4],"right_children":[2,4,6,-1,8,-1,-1,-1,-1],"split_conditions":[1E0,1E0,1E0,-4.6948746E-2,1E0,3.5239387E-1,-1.2513024E-2,-2.1306492E-2,2.3021538E-2],"split_indices":[64,63,130,0,101,0,0,0,0],"split_type":[0,0,0,0,0,0,0,0,0],"sum_hessian":[9.940631E1,8.846767E1,1.0938643E1,7.908672E1,9.380946E0,6.732115E0,4.2065287E0,6.9162245E0,2.4647214E0],"tree_param":{"num_deleted":"0","num_feature":"132","num_nodes":"9","size_leaf_vector":"1"}},{"base_weights":[-2.7971303E-2,-4.5457087E-2,1.0890517E0,2.065878E0,-2.9273523E-2,-1.4671154E-2,2.9633474E-1],"categories":[],"categories_nodes":[],"categories_segments":[],"categories_sizes":[],"default_left":[0,0,0,0,0,0,0],"id":91,"left_children":[1,-1,3,5,-1,-1,-1],"loss_changes":[5.1420845E1,0E0,4.472159E1,4.147486E1,0E0,0E0,0E0],"parents":[2147483647,0,0,2,2,3,3],"right_children":[2,-1,4,6,-1,-1,-1],"split_conditions":[1E0,-4.5457087E-2,1E0,1E0,-2.9273523E-2,-1.4671154E-2,2.9633474E-1],"split_indices":[0,0,28,60,0,0,0],"split_type":[0,0,0,0,0,0,0],"sum_hessian":[9.9045815E1,7.446685E1,2.4578962E1,1.3373297E1,1.1205666E1,4.7445774E0,8.628719E0],"tree_param":{"num_deleted":"0","num_feature":"132","num_nodes":"7","size_leaf_vector":"1"}},{"base_weights":[2.2397693E-2,-4.7458615E-2,3.7858555E-1],"categories":[],"categories_nodes":[],"categories_segments":[],"categories_sizes":[],"default_left":[0,0,0],"id":92,"left_children":[1,-1,-1],"loss_changes":[2.0596901E2,0E0,0E0],"parents":[2147483647,0,0],"right_children":[2,-1,-1],"split_conditions":[1E0,-4.7458615E-2,3.7858555E-1],"split_indices":[62,0,0],"split_type":[0,0,0],"sum_hessian":[9.8548164E1,9.0677505E1,7.87066E0],"tree_param":{"num_deleted":"0","num_feature":"132","num_nodes":"3","size_leaf_vector":"1"}},{"base_weights":[-4.083058E-2,-4.7473237E-2,3.4698614E-1],"categories":[],"categories_nodes":[],"categories_segments":[],"categories_sizes":[],"default_left":[0,0,0],"id":93,"left_children":[1,-1,-1],"loss_changes":[1.6161668E2,0E0,0E0],"parents":[2147483647,0,0],"right_children":[2,-1,-1],"split_conditions":[1E0,-4.7473237E-2,3.4698614E-1],"split_indices":[76,0,0],"split_type":[0,0,0],"sum_hessian":[9.7656075E1,9.1015755E1,6.6403165E0],"tree_param":{"num_deleted":"0","num_feature":"132","num_nodes":"3","size_leaf_vector":"1"}},{"base_weights":[-3.2188777E-2,-4.7400374E-2,3.4822696E-1],"categories":[],"categories_nodes":[],"categories_segments":[],"categories_sizes":[],"default_left":[0,0,0],"id":94,"left_children":[1,-1,-1],"loss_changes":[1.617862E2,0E0,0E0],"parents":[2147483647,0,0],"right_children":[2,-1,-1],"split_conditions":[1E0,-4.7400374E-2,3.4822696E-1],"split_indices":[48,0,0],"split_type":[0,0,0],"sum_hessian":[9.581622E1,8.921133E1,6.604894E0],"tree_param":{"num_deleted":"0","num_feature":"132","num_nodes":"3","size_leaf_vector":"1"}},{"base_weights":[-0E0,-4.7462735E-2,3.8071272E-1],"categories":[],"categories_nodes":[],"categories_segments":[],"categories_sizes":[],"default_left":[0,0,0],"id":95,"left_children":[1,-1,-1],"loss_changes":[1.9391078E2,0E0,0E0],"parents":[2147483647,0,0],"right_children":[2,-1,-1],"split_conditions":[1E0,-4.7462735E-2,3.8071272E-1],"split_indices":[77,0,0],"split_type":[0,0,0],"sum_hessian":[9.758488E1,9.069367E1,6.8912106E0],"tree_param":{"num_deleted":"0","num_feature":"132","num_nodes":"3","size_leaf_vector":"1"}},{"base_weights":[4.1544586E-2,-4.236105E-1,3.9563558E-1,-4.7403406E-2,3.344942E-2],"categories":[],"categories_nodes":[],"categories_segments":[],"categories_sizes":[],"default_left":[0,0,0,0,0],"id":96,"left_children":[1,3,-1,-1,-1],"loss_changes":[2.0070383E2,4.6384926E0,0E0,0E0,0E0],"parents":[2147483647,0,0,1,1],"right_children":[2,4,-1,-1,-1],"split_conditions":[1E0,1E0,3.9563558E-1,-4.7403406E-2,3.344942E-2],"split_indices":[105,108,0,0,0],"split_type":[0,0,0,0,0],"sum_hessian":[9.867486E1,9.195264E1,6.722224E0,8.921158E1,2.7410583E0],"tree_param":{"num_deleted":"0","num_feature":"132","num_nodes":"5","size_leaf_vector":"1"}},{"base_weights":[-0E0,-4.348013E-1,3.695021E-1,-4.6951808E-2,-1.129153E-1,-0E0,-1.9846387E-2],"categories":[],"categories_nodes":[],"categories_segments":[],"categories_sizes":[],"default_left":[0,0,0,0,0,0,0],"id":97,"left_children":[1,3,-1,-1,5,-1,-1],"loss_changes":[1.7874135E2,2.482624E-1,0E0,0E0,2.0576377E-1,0E0,0E0],"parents":[2147483647,0,0,1,1,4,4],"right_children":[2,4,-1,-1,6,-1,-1],"split_conditions":[1E0,1E0,3.695021E-1,-4.6951808E-2,1E0,-0E0,-1.9846387E-2],"split_indices":[74,101,0,0,45,0,0],"split_type":[0,0,0,0,0,0,0],"sum_hessian":[9.9791145E1,9.305737E1,6.733778E0,7.9123634E1,1.3933739E1,7.580855E0,6.352884E0],"tree_param":{"num_deleted":"0","num_feature":"132","num_nodes":"7","size_leaf_vector":"1"}},{"base_weights":[1.4903796E-2,-4.320852E-1,3.7558112E-1,-4.7341406E-2,2.6401797E-2],"categories":[],"categories_nodes":[],"categories_segments":[],"categories_sizes":[],"default_left":[0,0,0,0,0],"id":98,"left_children":[1,3,-1,-1,-1],"loss_changes":[1.8086998E2,3.5604153E0,0E0,0E0,0E0],"parents":[2147483647,0,0,1,1],"right_children":[2,4,-1,-1,-1],"split_conditions":[1E0,1E0,3.7558112E-1,-4.7341406E-2,2.6401797E-2],"split_indices":[119,108,0,0,0],"split_type":[0,0,0,0,0],"sum_hessian":[9.632625E1,8.975668E1,6.5695667E0,8.7592285E1,2.164399E0],"tree_param":{"num_deleted":"0","num_feature":"132","num_nodes":"5","size_leaf_vector":"1"}},{"base_weights":[-2.3525907E-2,-4.2306566E-1,3.7690493E-1,-4.7102522E-2,-0E0,3.0517817E-2,-1.939301E-2],"categories":[],"categories_nodes":[],"categories_segments":[],"categories_sizes":[],"default_left":[0,0,0,0,0,0,0],"id":99,"left_children":[1,3,-1,-1,5,-1,-1],"loss_changes":[1.5803352E2,2.0850945E0,0E0,0E0,1.1682901E0,0E0,0E0],"parents":[2147483647,0,0,1,1,4,4],"right_children":[2,4,-1,-1,6,-1,-1],"split_conditions":[1E0,1E0,3.7690493E-1,-4.7102522E-2,1E0,3.0517817E-2,-1.939301E-2],"split_indices":[29,31,0,0,72,0,0],"split_type":[0,0,0,0,0,0,0],"sum_hessian":[9.6239555E1,9.1324615E1,4.9149375E0,8.210585E1,9.218768E0,3.0233228E0,6.1954455E0],"tree_param":{"num_deleted":"0","num_feature":"132","num_nodes":"7","size_leaf_vector":"1"}},{"base_weights":[2.088863E-3,-4.3083757E-1,2.3087006E0,-4.6999488E-2,-0E0,3.8841453E-1,-2.0010449E-2,1.7061345E-2,-1.55166555E-2],"categories":[],"categories_nodes":[],"categories_segments":[],"categories_sizes":[],"default_left":[0,0,0,0,0,0,0,0,0],"id":100,"left_children":[1,3,5,-1,7,-1,-1,-1,-1],"loss_changes":[1.1249311E2,1.4915161E0,7.819856E1,0E0,4.763043E-1,0E0,0E0,0E0,0E0],"parents":[2147483647,0,0,1,1,2,2,4,4],"right_children":[2,4,6,-1,8,-1,-1,-1,-1],"split_conditions":[1E0,1E0,1E0,-4.6999488E-2,1E0,3.8841453E-1,-2.0010449E-2,1.7061345E-2,-1.55166555E-2],"split_indices":[14,110,26,0,53,0,0,0,0],"split_type":[0,0,0,0,0,0,0,0,0],"sum_hessian":[1.0079071E2,8.792136E1,1.2869355E1,7.983513E1,8.086225E0,6.466305E0,6.4030504E0,3.117266E0,4.968959E0],"tree_param":{"num_deleted":"0","num_feature":"132","num_nodes":"9","size_leaf_vector":"1"}},{"base_weights":[2.4746584E-3,-4.7487445E-2,3.795903E-1],"categories":[],"categories_nodes":[],"categories_segments":[],"categories_sizes":[],"default_left":[0,0,0],"id":101,"left_children":[1,-1,-1],"loss_changes":[2.001256E2,0E0,0E0],"parents":[2147483647,0,0],"right_children":[2,-1,-1],"split_conditions":[1E0,-4.7487445E-2,3.795903E-1],"split_indices":[89,0,0],"split_type":[0,0,0],"sum_hessian":[9.870708E1,9.132553E1,7.3815517E0],"tree_param":{"num_deleted":"0","num_feature":"132","num_nodes":"3","size_leaf_vector":"1"}},{"base_weights":[-3.945344E-2,-4.525636E-2,2.7518554E0,3.3805346E-1,-1.762138E-3],"categories":[],"categories_nodes":[],"categories_segments":[],"categories_sizes":[],"default_left":[0,0,0,0,0],"id":102,"left_children":[1,-1,3,-1,-1],"loss_changes":[1.219918E2,0E0,2.732891E1,0E0,0E0],"parents":[2147483647,0,0,2,2],"right_children":[2,-1,4,-1,-1],"split_conditions":[1E0,-4.525636E-2,1E0,3.3805346E-1,-1.762138E-3],"split_indices":[39,0,26,0,0],"split_type":[0,0,0,0,0],"sum_hessian":[9.738687E1,8.879318E1,8.59369E0,6.39898E0,2.1947098E0],"tree_param":{"num_deleted":"0","num_feature":"132","num_nodes":"5","size_leaf_vector":"1"}},{"base_weights":[1.873626E-2,-4.478405E-1,2.0134E0,-4.673666E-2,-3.988384E-2,2.8528342E0,-1.6389854E-2,-1.2365385E-2,-0E0,3.448496E-1,-2.7930546E-3],"categories":[],"categories_nodes":[],"categories_segments":[],"categories_sizes":[],"default_left":[0,0,0,0,0,0,0,0,0,0,0],"id":103,"left_children":[1,3,5,-1,7,9,-1,-1,-1,-1,-1],"loss_changes":[1.01492386E2,9.078026E-2,4.2955513E1,0E0,1.214222E-1,3.0638199E1,0E0,0E0,0E0,0E0,0E0],"parents":[2147483647,0,0,1,1,2,2,4,4,5,5],"right_children":[2,4,6,-1,8,10,-1,-1,-1,-1,-1],"split_conditions":[1E0,1E0,1E0,-4.673666E-2,1E0,1E0,-1.6389854E-2,-1.2365385E-2,-0E0,3.448496E-1,-2.7930546E-3],"split_indices":[28,56,55,0,122,107,0,0,0,0,0],"split_type":[0,0,0,0,0,0,0,0,0,0,0],"sum_hessian":[9.752727E1,8.1775116E1,1.5752155E1,7.500572E1,6.7693925E0,1.0580806E1,5.171349E0,4.1655674E0,2.603825E0,8.238966E0,2.34184E0],"tree_param":{"num_deleted":"0","num_feature":"132","num_nodes":"11","size_leaf_vector":"1"}},{"base_weights":[-0E0,-4.3565187E-1,1.665162E0,-4.653951E-2,-5.3535823E-2,-4.5701124E-2,2.8914652E0,-2.1816583E-2,1.2283446E-2,-2.0668084E-2,1.0422431E-2,-1.5826559E-3,3.538567E-1],"categories":[],"categories_nodes":[],"categories_segments":[],"categories_sizes":[],"default_left":[0,0,0,0,0,0,0,0,0,0,0,0,0],"id":104,"left_children":[1,3,5,-1,7,9,11,-1,-1,-1,-1,-1,-1],"loss_changes":[7.9170364E1,3.3338356E-1,5.106783E1,0E0,6.441065E-1,5.4917437E-1,2.9431786E1,0E0,0E0,0E0,0E0,0E0,0E0],"parents":[2147483647,0,0,1,1,2,2,4,4,5,5,6,6],"right_children":[2,4,6,-1,8,10,12,-1,-1,-1,-1,-1,-1],"split_conditions":[1E0,1E0,1E0,-4.653951E-2,1E0,1E0,1E0,-2.1816583E-2,1.2283446E-2,-2.0668084E-2,1.0422431E-2,-1.5826559E-3,3.538567E-1],"split_indices":[56,130,45,0,45,41,0,0,0,0,0,0,0],"split_type":[0,0,0,0,0,0,0,0,0,0,0,0,0],"sum_hessian":[9.862277E1,8.0953316E1,1.7669458E1,7.166808E1,9.2852335E0,9.046516E0,8.622942E0,7.1221685E0,2.163065E0,6.6661034E0,2.3804128E0,2.1765451E0,6.446397E0],"tree_param":{"num_deleted":"0","num_feature":"132","num_nodes":"13","size_leaf_vector":"1"}},{"base_weights":[-2.145803E-3,-4.6533473E-2,3.7113264E-1],"categories":[],"categories_nodes":[],"categories_segments":[],"categories_sizes":[],"default_left":[0,0,0],"id":105,"left_children":[1,-1,-1],"loss_changes":[1.8538605E2,0E0,0E0],"parents":[2147483647,0,0],"right_children":[2,-1,-1],"split_conditions":[1E0,-4.6533473E-2,3.7113264E-1],"split_indices":[58,0,0],"split_type":[0,0,0],"sum_hessian":[9.964703E1,9.272411E1,6.922926E0],"tree_param":{"num_deleted":"0","num_feature":"132","num_nodes":"3","size_leaf_vector":"1"}},{"base_weights":[-1.0337662E-4,-4.7372825E-2,3.1194792E0,3.722231E-1,-1.4743452E-4],"categories":[],"categories_nodes":[],"categories_segments":[],"categories_sizes":[],"default_left":[0,0,0,0,0],"id":106,"left_children":[1,-1,3,-1,-1],"loss_changes":[1.5591754E2,0E0,2.9835007E1,0E0,0E0],"parents":[2147483647,0,0,2,2],"right_children":[2,-1,4,-1,-1],"split_conditions":[1E0,-4.7372825E-2,1E0,3.722231E-1,-1.4743452E-4],"split_indices":[1,0,15,0,0],"split_type":[0,0,0,0,0],"sum_hessian":[9.731685E1,8.8449455E1,8.8674E0,6.89323E0,1.9741707E0],"tree_param":{"num_deleted":"0","num_feature":"132","num_nodes":"5","size_leaf_vector":"1"}},{"base_weights":[-2.0140033E-2,-4.745548E-2,3.583953E-1],"categories":[],"categories_nodes":[],"categories_segments":[],"categories_sizes":[],"default_left":[0,0,0],"id":107,"left_children":[1,-1,-1],"loss_changes":[1.7311732E2,0E0,0E0],"parents":[2147483647,0,0],"right_children":[2,-1,-1],"split_conditions":[1E0,-4.745548E-2,3.583953E-1],"split_indices":[80,0,0],"split_type":[0,0,0],"sum_hessian":[9.741033E1,9.060561E1,6.8047175E0],"tree_param":{"num_deleted":"0","num_feature":"132","num_nodes":"3","size_leaf_vector":"1"}},{"base_weights":[-1.4644321E-2,-4.7413554E-2,3.6035833E-1],"categories":[],"categories_nodes":[],"categories_segments":[],"categories_sizes":[],"default_left":[0,0,0],"id":108,"left_children":[1,-1,-1],"loss_changes":[1.7380745E2,0E0,0E0],"parents":[2147483647,0,0],"right_children":[2,-1,-1],"split_conditions":[1E0,-4.7413554E-2,3.6035833E-1],"split_indices":[15,0,0],"split_type":[0,0,0],"sum_hessian":[9.6286934E1,8.953744E1,6.7494946E0],"tree_param":{"num_deleted":"0","num_feature":"132","num_nodes":"3","size_leaf_vector":"1"}},{"base_weights":[4.4011332E-2,-4.528362E-2,3.9622578E-1],"categories":[],"categories_nodes":[],"categories_segments":[],"categories_sizes":[],"default_left":[0,0,0],"id":109,"left_children":[1,-1,-1],"loss_changes":[2.0987592E2,0E0,0E0],"parents":[2147483647,0,0],"right_children":[2,-1,-1],"split_conditions":[1E0,-4.528362E-2,3.9622578E-1],"split_indices":[128,0,0],"split_type":[0,0,0],"sum_hessian":[9.639623E1,8.924641E1,7.149832E0],"tree_param":{"num_deleted":"0","num_feature":"132","num_nodes":"3","size_leaf_vector":"1"}},{"base_weights":[-1.790654E-2,-4.6145346E-2,2.098217E0,-1.4087816E-1,3.6955696E-1,-1.5879855E-2,-0E0],"categories":[],"categories_nodes":[],"categories_segments":[],"categories_sizes":[],"default_left":[0,0,0,0,0,0,0],"id":110,"left_children":[1,-1,3,5,-1,-1,-1],"loss_changes":[1.0082916E2,0E0,7.244713E1,1.0391429E-2,0E0,0E0,0E0],"parents":[2147483647,0,0,2,2,3,3],"right_children":[2,-1,4,6,-1,-1,-1],"split_conditions":[1E0,-4.6145346E-2,1E0,1E0,3.6955696E-1,-1.5879855E-2,-0E0],"split_indices":[127,0,131,45,0,0,0],"split_type":[0,0,0,0,0,0,0],"sum_hessian":[9.901105E1,8.5477005E1,1.3534044E1,7.2726164E0,6.261428E0,5.071064E0,2.2015526E0],"tree_param":{"num_deleted":"0","num_feature":"132","num_nodes":"7","size_leaf_vector":"1"}},{"base_weights":[-2.67312E-2,-4.7173716E-2,2.1227508E0,-0E0,3.643249E-1,8.108063E-3,-1.4221179E-2],"categories":[],"categories_nodes":[],"categories_segments":[],"categories_sizes":[],"default_left":[0,0,0,0,0,0,0],"id":111,"left_children":[1,-1,3,5,-1,-1,-1],"loss_changes":[1.00774315E2,0E0,6.0787125E1,2.4508451E-1,0E0,0E0,0E0],"parents":[2147483647,0,0,2,2,3,3],"right_children":[2,-1,4,6,-1,-1,-1],"split_conditions":[1E0,-4.7173716E-2,1E0,1E0,3.643249E-1,8.108063E-3,-1.4221179E-2],"split_indices":[68,0,110,41,0,0,0],"split_type":[0,0,0,0,0,0,0],"sum_hessian":[9.684541E1,8.385323E1,1.2992183E1,7.304443E0,5.6877394E0,2.6837313E0,4.620712E0],"tree_param":{"num_deleted":"0","num_feature":"132","num_nodes":"7","size_leaf_vector":"1"}},{"base_weights":[4.2374306E-3,-4.4290018E-1,3.2434335E0,-4.732475E-2,7.768668E-3,3.8950732E-1,-2.190544E-4],"categories":[],"categories_nodes":[],"categories_segments":[],"categories_sizes":[],"default_left":[0,0,0,0,0,0,0],"id":112,"left_children":[1,3,5,-1,-1,-1,-1],"loss_changes":[1.5976265E2,2.0801907E0,3.230916E1,0E0,0E0,0E0,0E0],"parents":[2147483647,0,0,1,1,2,2],"right_children":[2,4,6,-1,-1,-1,-1],"split_conditions":[1E0,1E0,1E0,-4.732475E-2,7.768668E-3,3.8950732E-1,-2.190544E-4],"split_indices":[49,30,122,0,0,0,0],"split_type":[0,0,0,0,0,0,0],"sum_hessian":[9.841274E1,8.9997185E1,8.41556E0,8.728456E1,2.7126226E0,6.431819E0,1.9837403E0],"tree_param":{"num_deleted":"0","num_feature":"132","num_nodes":"7","size_leaf_vector":"1"}},{"base_weights":[-2.2241853E-2,-4.516691E-2,2.8428433E0,3.4583816E-1,-1.049843E-3],"categories":[],"categories_nodes":[],"categories_segments":[],"categories_sizes":[],"default_left":[0,0,0,0,0],"id":113,"left_children":[1,-1,3,-1,-1],"loss_changes":[1.2808563E2,0E0,2.7383682E1,0E0,0E0],"parents":[2147483647,0,0,2,2],"right_children":[2,-1,4,-1,-1],"split_conditions":[1E0,-4.516691E-2,1E0,3.4583816E-1,-1.049843E-3],"split_indices":[73,0,6,0,0],"split_type":[0,0,0,0,0],"sum_hessian":[9.583076E1,8.73059E1,8.52486E0,6.42834E0,2.0965207E0],"tree_param":{"num_deleted":"0","num_feature":"132","num_nodes":"5","size_leaf_vector":"1"}},{"base_weights":[-3.3392776E-2,-4.4787996E-2,4.6209452E-1],"categories":[],"categories_nodes":[],"categories_segments":[],"categories_sizes":[],"default_left":[0,0,0],"id":114,"left_children":[1,-1,-1],"loss_changes":[2.0958731E2,0E0,0E0],"parents":[2147483647,0,0],"right_children":[2,-1,-1],"split_conditions":[1E0,-4.4787996E-2,4.6209452E-1],"split_indices":[125,0,0],"split_type":[0,0,0],"sum_hessian":[1.0044065E2,9.657406E1,3.8665903E0],"tree_param":{"num_deleted":"0","num_feature":"132","num_nodes":"3","size_leaf_vector":"1"}},{"base_weights":[-1.3933983E-2,-4.7510654E-2,3.8211253E-1],"categories":[],"categories_nodes":[],"categories_segments":[],"categories_sizes":[],"default_left":[0,0,0],"id":115,"left_children":[1,-1,-1],"loss_changes":[1.8823747E2,0E0,0E0],"parents":[2147483647,0,0],"right_children":[2,-1,-1],"split_conditions":[1E0,-4.7510654E-2,3.8211253E-1],"split_indices":[81,0,0],"split_type":[0,0,0],"sum_hessian":[9.819112E1,9.1794044E1,6.3970675E0],"tree_param":{"num_deleted":"0","num_feature":"132","num_nodes":"3","size_leaf_vector":"1"}},{"base_weights":[2.5187885E-2,-4.7438655E-2,3.794987E-1],"categories":[],"categories_nodes":[],"categories_segments":[],"categories_sizes":[],"default_left":[0,0,0],"id":116,"left_children":[1,-1,-1],"loss_changes":[2.0632869E2,0E0,0E0],"parents":[2147483647,0,0],"right_children":[2,-1,-1],"split_conditions":[1E0,-4.7438655E-2,3.794987E-1],"split_indices":[95,0,0],"split_type":[0,0,0],"sum_hessian":[9.801446E1,9.017058E1,7.8438797E0],"tree_param":{"num_deleted":"0","num_feature":"132","num_nodes":"3","size_leaf_vector":"1"}},{"base_weights":[7.334939E-4,-4.534035E-2,3.6788595E-1],"categories":[],"categories_nodes":[],"categories_segments":[],"categories_sizes":[],"default_left":[0,0,0],"id":117,"left_children":[1,-1,-1],"loss_changes":[1.8215022E2,0E0,0E0],"parents":[2147483647,0,0],"right_children":[2,-1,-1],"split_conditions":[1E0,-4.534035E-2,3.6788595E-1],"split_indices":[100,0,0],"split_type":[0,0,0],"sum_hessian":[9.7123726E1,9.010968E1,7.014042E0],"tree_param":{"num_deleted":"0","num_feature":"132","num_nodes":"3","size_leaf_vector":"1"}},{"base_weights":[2.0146053E-3,-4.7275208E-2,2.5284886E0,-1.325124E-2,3.541852E-1],"categories":[],"categories_nodes":[],"categories_segments":[],"categories_sizes":[],"default_left":[0,0,0,0,0],"id":118,"left_children":[1,-1,3,-1,-1],"loss_changes":[1.3239716E2,0E0,5.3005745E1,0E0,0E0],"parents":[2147483647,0,0,2,2],"right_children":[2,-1,4,-1,-1],"split_conditions":[1E0,-4.7275208E-2,1E0,-1.325124E-2,3.541852E-1],"split_indices":[111,0,130,0,0],"split_type":[0,0,0,0,0],"sum_hessian":[9.868168E1,8.615947E1,1.2522208E1,4.3800235E0,8.142184E0],"tree_param":{"num_deleted":"0","num_feature":"132","num_nodes":"5","size_leaf_vector":"1"}},{"base_weights":[1.4844835E-2,-4.752715E-2,3.8695958E-1],"categories":[],"categories_nodes":[],"categories_segments":[],"categories_sizes":[],"default_left":[0,0,0],"id":119,"left_children":[1,-1,-1],"loss_changes":[2.1109181E2,0E0,0E0],"parents":[2147483647,0,0],"right_children":[2,-1,-1],"split_conditions":[1E0,-4.752715E-2,3.8695958E-1],"split_indices":[7,0,0],"split_type":[0,0,0],"sum_hessian":[1.0006771E2,9.2438614E1,7.629099E0],"tree_param":{"num_deleted":"0","num_feature":"132","num_nodes":"3","size_leaf_vector":"1"}},{"base_weights":[-0E0,-4.3330464E-1,3.6374342E-1,-4.737932E-2,2.2572936E-2],"categories":[],"categories_nodes":[],"categories_segments":[],"categories_sizes":[],"default_left":[0,0,0,0,0],"id":120,"left_children":[1,3,-1,-1,-1],"loss_changes":[1.6911536E2,3.3500214E0,0E0,0E0,0E0],"parents":[2147483647,0,0,1,1],"right_children":[2,4,-1,-1,-1],"split_conditions":[1E0,1E0,3.6374342E-1,-4.737932E-2,2.2572936E-2],"split_indices":[9,17,0,0,0],"split_type":[0,0,0,0,0],"sum_hessian":[9.762699E1,9.1210434E1,6.4165506E0,8.868475E1,2.525684E0],"tree_param":{"num_deleted":"0","num_feature":"132","num_nodes":"5","size_leaf_vector":"1"}},{"base_weights":[-4.6238895E-3,-4.6394974E-2,3.8585612E-1],"categories":[],"categories_nodes":[],"categories_segments":[],"categories_sizes":[],"default_left":[0,0,0],"id":121,"left_children":[1,-1,-1],"loss_changes":[1.8539679E2,0E0,0E0],"parents":[2147483647,0,0],"right_children":[2,-1,-1],"split_conditions":[1E0,-4.6394974E-2,3.8585612E-1],"split_indices":[85,0,0],"split_type":[0,0,0],"sum_hessian":[9.6349396E1,9.0274315E1,6.075079E0],"tree_param":{"num_deleted":"0","num_feature":"132","num_nodes":"3","size_leaf_vector":"1"}},{"base_weights":[2.6470277E-2,-4.729616E-2,2.6295762E0,3.7102142E-1,-1.40779065E-2],"categories":[],"categories_nodes":[],"categories_segments":[],"categories_sizes":[],"default_left":[0,0,0,0,0],"id":122,"left_children":[1,-1,3,-1,-1],"loss_changes":[1.4430688E2,0E0,5.981595E1,0E0,0E0],"parents":[2147483647,0,0,2,2],"right_children":[2,-1,4,-1,-1],"split_conditions":[1E0,-4.729616E-2,1E0,3.7102142E-1,-1.40779065E-2],"split_indices":[64,0,63,0,0],"split_type":[0,0,0,0,0],"sum_hessian":[9.955699E1,8.664137E1,1.2915625E1,8.330727E0,4.5848975E0],"tree_param":{"num_deleted":"0","num_feature":"132","num_nodes":"5","size_leaf_vector":"1"}},{"base_weights":[8.64573E-3,-4.3928362E-2,2.2488594E0,-0E0,3.061812E-1,-3.2696407E-3,-0E0],"categories":[],"categories_nodes":[],"categories_segments":[],"categories_sizes":[],"default_left":[0,0,0,0,0,0,0],"id":123,"left_children":[1,-1,3,5,-1,-1,-1],"loss_changes":[1.1108428E2,0E0,3.5267517E1,7.937673E-3,0E0,0E0,0E0],"parents":[2147483647,0,0,2,2,3,3],"right_children":[2,-1,4,6,-1,-1,-1],"split_conditions":[1E0,-4.3928362E-2,1E0,1E0,3.061812E-1,-3.2696407E-3,-0E0],"split_indices":[61,0,122,44,0,0,0],"split_type":[0,0,0,0,0,0,0],"sum_hessian":[9.8975784E1,8.546106E1,1.3514723E1,4.764586E0,8.750136E0,2.4249432E0,2.3396425E0],"tree_param":{"num_deleted":"0","num_feature":"132","num_nodes":"7","size_leaf_vector":"1"}},{"base_weights":[4.3655522E-2,-4.520799E-2,3.2993707E-1],"categories":[],"categories_nodes":[],"categories_segments":[],"categories_sizes":[],"default_left":[0,0,0],"id":124,"left_children":[1,-1,-1],"loss_changes":[1.7641628E2,0E0,0E0],"parents":[2147483647,0,0],"right_children":[2,-1,-1],"split_conditions":[1E0,-4.520799E-2,3.2993707E-1],"split_indices":[82,0,0],"split_type":[0,0,0],"sum_hessian":[9.79206E1,8.845105E1,9.469546E0],"tree_param":{"num_deleted":"0","num_feature":"132","num_nodes":"3","size_leaf_vector":"1"}},{"base_weights":[-1.5737178E-2,-4.0883318E-1,3.0104795E-1,-4.7259923E-2,7.107743E-2],"categories":[],"categories_nodes":[],"categories_segments":[],"categories_sizes":[],"default_left":[0,0,0,0,0],"id":125,"left_children":[1,3,-1,-1,-1],"loss_changes":[1.2163293E2,8.048411E0,0E0,0E0,0E0],"parents":[2147483647,0,0,1,1],"right_children":[2,4,-1,-1,-1],"split_conditions":[1E0,1E0,3.0104795E-1,-4.7259923E-2,7.107743E-2],"split_indices":[8,96,0,0,0],"split_type":[0,0,0,0,0],"sum_hessian":[9.426134E1,8.754454E1,6.7167993E0,8.640599E1,1.1385496E0],"tree_param":{"num_deleted":"0","num_feature":"132","num_nodes":"5","size_leaf_vector":"1"}},{"base_weights":[-1.2489941E-2,-4.6316586E-2,2.7964875E-1],"categories":[],"categories_nodes":[],"categories_segments":[],"categories_sizes":[],"default_left":[0,0,0],"id":126,"left_children":[1,-1,-1],"loss_changes":[1.3615314E2,0E0,0E0],"parents":[2147483647,0,0],"right_children":[2,-1,-1],"split_conditions":[1E0,-4.6316586E-2,2.7964875E-1],"split_indices":[47,0,0],"split_type":[0,0,0],"sum_hessian":[9.927858E1,8.945747E1,9.821107E0],"tree_param":{"num_deleted":"0","num_feature":"132","num_nodes":"3","size_leaf_vector":"1"}},{"base_weights":[-0E0,-4.2120554E-2,2.9280403E-1],"categories":[],"categories_nodes":[],"categories_segments":[],"categories_sizes":[],"default_left":[0,0,0],"id":127,"left_children":[1,-1,-1],"loss_changes":[1.3430792E2,0E0,0E0],"parents":[2147483647,0,0],"right_children":[2,-1,-1],"split_conditions":[1E0,-4.2120554E-2,2.9280403E-1],"split_indices":[97,0,0],"split_type":[0,0,0],"sum_hessian":[9.848509E1,8.9780815E1,8.704272E0],"tree_param":{"num_deleted":"0","num_feature":"132","num_nodes":"3","size_leaf_vector":"1"}},{"base_weights":[-4.7734924E-2,-4.6132705E-1,2.2839468E0,-4.7108363E-2,-0E0,2.833994E-1,-4.3313187E-3],"categories":[],"categories_nodes":[],"categories_segments":[],"categories_sizes":[],"default_left":[0,0,0,0,0,0,0],"id":128,"left_children":[1,3,5,-1,-1,-1,-1],"loss_changes":[1.0148332E2,2.7287483E-1,2.3619423E1,0E0,0E0,0E0,0E0],"parents":[2147483647,0,0,1,1,2,2],"right_children":[2,4,6,-1,-1,-1,-1],"split_conditions":[1E0,1E0,1E0,-4.7108363E-2,-0E0,2.833994E-1,-4.3313187E-3],"split_indices":[70,112,1,0,0,0,0],"split_type":[0,0,0,0,0,0,0],"sum_hessian":[9.6660355E1,8.5868645E1,1.0791704E1,8.337328E1,2.4953604E0,8.195662E0,2.5960436E0],"tree_param":{"num_deleted":"0","num_feature":"132","num_nodes":"7","size_leaf_vector":"1"}},{"base_weights":[-0E0,-4.4012782E-1,2.7735946E-1,-4.7160402E-2,9.047037E-3],"categories":[],"categories_nodes":[],"categories_segments":[],"categories_sizes":[],"default_left":[0,0,0,0,0],"id":129,"left_children":[1,3,-1,-1,-1],"loss_changes":[1.3030577E2,2.1306E0,0E0,0E0,0E0],"parents":[2147483647,0,0,1,1],"right_children":[2,4,-1,-1,-1],"split_conditions":[1E0,1E0,2.7735946E-1,-4.7160402E-2,9.047037E-3],"split_indices":[67,39,0,0,0],"split_type":[0,0,0,0,0],"sum_hessian":[9.6599976E1,8.697744E1,9.622532E0,8.4410614E1,2.566826E0],"tree_param":{"num_deleted":"0","num_feature":"132","num_nodes":"5","size_leaf_vector":"1"}},{"base_weights":[-3.2204844E-2,-4.1983536E-1,2.8442773E-1,-4.7215607E-2,3.314758E-2],"categories":[],"categories_nodes":[],"categories_segments":[],"categories_sizes":[],"default_left":[0,0,0,0,0],"id":130,"left_children":[1,3,-1,-1,-1],"loss_changes":[1.15717804E2,4.5914536E0,0E0,0E0,0E0],"parents":[2147483647,0,0,1,1],"right_children":[2,4,-1,-1,-1],"split_conditions":[1E0,1E0,2.8442773E-1,-4.7215607E-2,3.314758E-2],"split_indices":[124,6,0,0,0],"split_type":[0,0,0,0,0],"sum_hessian":[9.560124E1,8.8317566E1,7.2836723E0,8.554881E1,2.7687593E0],"tree_param":{"num_deleted":"0","num_feature":"132","num_nodes":"5","size_leaf_vector":"1"}},{"base_weights":[-5.4408047E-2,-4.7197994E-2,2.3050995E0,2.7720127E-1,-1.9690488E-3],"categories":[],"categories_nodes":[],"categories_segments":[],"categories_sizes":[],"default_left":[0,0,0,0,0],"id":131,"left_children":[1,-1,3,-1,-1],"loss_changes":[1.0304652E2,0E0,2.0029686E1,0E0,0E0],"parents":[2147483647,0,0,2,2],"right_children":[2,-1,4,-1,-1],"split_conditions":[1E0,-4.7197994E-2,1E0,2.7720127E-1,-1.9690488E-3],"split_indices":[91,0,6,0,0],"split_type":[0,0,0,0,0],"sum_hessian":[9.5927086E1,8.5261635E1,1.0665457E1,8.438875E0,2.226581E0],"tree_param":{"num_deleted":"0","num_feature":"132","num_nodes":"5","size_leaf_vector":"1"}},{"base_weights":[-0E0,-4.4712014E-2,1.5510024E0,-1.6841356E-1,3.0839682E-1,-2.4801662E-2,-0E0],"categories":[],"categories_nodes":[],"categories_segments":[],"categories_sizes":[],"default_left":[0,0,0,0,0,0,0],"id":132,"left_children":[1,-1,3,5,-1,-1,-1],"loss_changes":[7.6830284E1,0E0,7.085782E1,3.7185684E-1,0E0,0E0,0E0],"parents":[2147483647,0,0,2,2,3,3],"right_children":[2,-1,4,6,-1,-1,-1],"split_conditions":[1E0,-4.4712014E-2,1E0,1E0,3.0839682E-1,-2.4801662E-2,-0E0],"split_indices":[55,0,72,130,0,0,0],"split_type":[0,0,0,0,0,0,0],"sum_hessian":[1.0078659E2,8.099517E1,1.9791416E1,1.1118722E1,8.672695E0,8.477549E0,2.6411731E0],"tree_param":{"num_deleted":"0","num_feature":"132","num_nodes":"7","size_leaf_vector":"1"}},{"base_weights":[-4.0408123E-2,-4.7222387E-2,2.7064574E-1],"categories":[],"categories_nodes":[],"categories_segments":[],"categories_sizes":[],"default_left":[0,0,0],"id":133,"left_children":[1,-1,-1],"loss_changes":[1.2271187E2,0E0,0E0],"parents":[2147483647,0,0],"right_children":[2,-1,-1],"split_conditions":[1E0,-4.7222387E-2,2.7064574E-1],"split_indices":[22,0,0],"split_type":[0,0,0],"sum_hessian":[9.495099E1,8.59447E1,9.0062895E0],"tree_param":{"num_deleted":"0","num_feature":"132","num_nodes":"3","size_leaf_vector":"1"}},{"base_weights":[-0E0,-4.734844E-2,2.9095867E-1],"categories":[],"categories_nodes":[],"categories_segments":[],"categories_sizes":[],"default_left":[0,0,0],"id":134,"left_children":[1,-1,-1],"loss_changes":[1.5222014E2,0E0,0E0],"parents":[2147483647,0,0],"right_children":[2,-1,-1],